{"symptoms": ["abdominal_cramps", "bloating", "blurred_vision", "body_ache", "change_in_urination", "chest_pain", "chills", "cold_sweat", "confusion", "constipation_or_diarrhea", "continuous_sneezing", "cough", "coughing", "coughing_up_blood", "cyclical_fever", "dehydration", "diarrhea", "dizziness", "excessive_thirst", "extreme_fatigue", "fatigue", "fatigue_on_exertion", "fever", "frequent_urination", "head_congestion", "headache", "high_blood_pressure", "high_fever", "increased_hunger", "irregular_heartbeat", "itchy_eyes", "joint_pain", "loss_of_appetite", "mild_fever", "muscle_ache", "muscle_cramps", "muscle_pain", "nasal_congestion", "nausea", "night_sweats", "nosebleeds", "numbness_in_hands_or_feet", "pain_behind_eyes", "palpitations", "persistent_cough", "profuse_sweating", "prolonged_cough", "prolonged_high_fever", "radiating_arm_pain", "rash", "rash_of_flat_rose-colored_spots", "runny_nose", "severe_fatigue", "severe_headache", "severe_muscle_ache", "shaking_chills", "shortness_of_breath", "skin_rash", "slow_healing_wounds", "sneezing", "sore_throat", "stomach_pain", "sweating", "swelling_ankles", "swelling_in_legs", "unexplained_weight_loss", "vomiting", "watery_eyes", "weakness"], "classes": ["Allergy", "Cardiovascular_Diseases", "Common Cold", "Dengue", "Diabetes", "Gastrointestinal_Infections", "Hypertension", "Influenza", "Kidney_Disease", "Malaria", "Tuberculosis", "Typhoid_Fever"], "layers": [{"activation": "relu", "kernel": [[-0.049078021198511124, -0.12748084962368011, -0.09036362171173096, -0.08574310690164566, 0.06265054643154144, 0.08382953703403473, 0.20992721617221832, 0.039360158145427704, -0.010399149730801582, -0.09610261023044586, 0.12401528656482697, -0.09317014366388321, -0.12019330263137817, -0.0028879607561975718, 0.11158379167318344, 0.04106498882174492, -0.1964566856622696, -0.08193397521972656, 0.17967623472213745, 0.022285927087068558, -0.01029832661151886, 0.005709795746952295, 0.05420202761888504, -0.010900894179940224, 0.11178498715162277, 0.062272701412439346, 0.04999128729104996, 0.08811216801404953, -0.16707836091518402, 0.07147742062807083, -0.027028672397136688, 0.25789469480514526, 0.1452566385269165, -0.04520941153168678, -0.1052577868103981, -0.0033549282234162092, 0.12140768766403198, 0.007854038849473, -0.18116872012615204, -0.0641799122095108, 0.1429976373910904, -0.20761430263519287, 0.13328172266483307, 0.10498955100774765, 0.035088684409856796, -0.046478088945150375, 0.02239236608147621, -0.04746362194418907, -0.01882009208202362, -0.0051715681329369545, 0.1646580547094345, -0.048002779483795166, -0.017615918070077896, -0.05818581208586693, -0.18200825154781342, -0.05920743942260742, 0.005621295887976885, 0.04221140593290329, 0.021323250606656075, -0.09678065031766891, -0.1571342945098877, 0.08120625466108322, -0.06194722279906273, -0.19574576616287231, 0.007438622415065765, -0.08879897743463516, -0.05121450498700142, 0.23593604564666748, 0.27559828758239746, -0.013354760594666004, -0.13588067889213562, -0.12687690556049347, -0.0256631039083004, -0.12033567577600479, -0.1384558081626892, -0.1369355022907257, -0.15228471159934998, 0.163167342543602, 0.20211417973041534, 0.041733518242836, -0.03742586448788643, -0.09053492546081543, -0.0849447175860405, -0.08421031385660172, -0.014142967760562897, 0.05931641161441803, 0.036680109798908234, -0.11857359856367111, 0.11468283832073212, 0.03502994775772095, 0.13832233846187592, -0.09673690050840378, -0.04068543016910553, 0.02415839210152626, 0.010882521979510784, 0.07156675308942795, 0.2121770679950714, -0.08489526063203812, 0.00017236144049093127, -0.09289881587028503, -0.1338679939508438, -0.16160458326339722, 0.2376679927110672, 0.18221263587474823, 0.08324407786130905, -0.03490102291107178, -0.04160555824637413, -0.14248402416706085, 0.13422204554080963, 0.04239446669816971, -0.1851409673690796, -0.03413841500878334, -0.031100943684577942, 0.05495868995785713, 0.1007470041513443, 0.1341109275817871, -0.07414929568767548, -0.001894379616715014, -0.07300110906362534, -0.16703437268733978, 0.017358897253870964, 0.15808719396591187, 0.05596182122826576, 0.16483867168426514, -0.04489535838365555, 0.08424974232912064, 0.19050638377666473, 0.06617578119039536], [0.028191613033413887, 0.033231765031814575, -0.07958405464887619, 0.0015128330560401082, 0.036683376878499985, -0.16621586680412292, 0.14194881916046143, -0.022597553208470345, -0.01146691758185625, 0.02478155680000782, -0.10750043392181396, 0.0523749478161335, 0.004650855902582407, 0.03965706378221512, -0.11114534735679626, 0.10208024084568024, -0.2000810205936432, -0.13528594374656677, 0.21524010598659515, -0.041771482676267624, -0.08777499943971634, 0.0928286463022232, -0.15117879211902618, 0.07149189710617065, 0.0945093035697937, 0.294686883687973, 0.06078362837433815, 0.20932143926620483, -0.11409427970647812, -0.0963868722319603, 0.09130360186100006, 0.23170986771583557, 0.13363900780677795, -0.0526266023516655, -0.1546768993139267, 0.07879828661680222, 0.18084105849266052, -0.10433311760425568, -0.204656183719635, 0.10629310458898544, 0.09005790203809738, 0.008207838982343674, 0.09007865935564041, 0.0927518755197525, -0.05660999193787575, 0.01712108589708805, -0.16595222055912018, -0.13538213074207306, 0.07662074267864227, 0.12478628009557724, 0.19612516462802887, -0.13253282010555267, -0.032033149152994156, -0.1466323435306549, -0.21242180466651917, 0.068104587495327, -0.11794983595609665, -0.13102443516254425, -0.08977486193180084, -0.1162233054637909, -0.11895141005516052, -0.04558569937944412, 0.06263827532529831, -0.023640528321266174, -0.06477105617523193, -0.18037638068199158, 0.1266033947467804, 0.1694411188364029, 0.14244654774665833, 0.19072917103767395, 0.15558966994285583, -0.12254545837640762, -0.03499400243163109, -0.2012145072221756, -0.08018392324447632, 0.06600940972566605, -0.1939031034708023, 0.09223172068595886, 0.09585778415203094, -0.17179393768310547, -0.1671253889799118, 0.051567886024713516, 0.05269145593047142, -0.20234206318855286, 0.07376855611801147, -0.07579994946718216, 0.030517200008034706, 0.07586592435836792, -0.10413780808448792, 0.2232387810945511, 0.18437756597995758, -0.20763114094734192, 0.07271814346313477, -0.06017550081014633, 0.011635164730250835, 0.024713078513741493, -0.044320911169052124, 0.11462679505348206, -0.05862966552376747, 0.04297131299972534, -0.003880919422954321, 0.08984263986349106, 0.23751913011074066, 0.11016390472650528, 0.15648449957370758, -0.10726086050271988, -0.08013342320919037, 0.024871835485100746, 0.1147143617272377, 0.0010382840409874916, 0.102623850107193, 0.011728918179869652, -0.0728689655661583, 0.1476040631532669, -0.11766289919614792, 0.05373067408800125, 0.15530003607273102, 0.011828591115772724, -0.140321284532547, -0.11224955320358276, 0.06581561267375946, 0.1991143375635147, -0.04559167101979256, 0.11898812651634216, -0.17926369607448578, 0.030514337122440338, 0.09880422800779343, -0.057130128145217896], [0.11897161602973938, 0.12430448830127716, 0.0016892142593860626, 0.05194362998008728, -0.14972341060638428, -0.17378945648670197, 0.025452300906181335, -0.21387213468551636, 0.20883964002132416, 0.17154070734977722, -0.19680406153202057, -0.15576988458633423, 0.0782218649983406, -0.04635046049952507, 0.0761658176779747, 0.1370241343975067, 0.12295742332935333, 0.16911377012729645, -0.022251976653933525, 0.12911207973957062, 0.06785979866981506, 0.06108126416802406, 0.13577011227607727, 0.027407817542552948, 0.1391974240541458, -0.10571335256099701, -0.14640939235687256, -0.11474328488111496, -0.10032131522893906, -0.02637610211968422, -0.13406899571418762, 0.03159206733107567, 0.26922857761383057, 0.10036175698041916, 0.23140034079551697, 0.18380208313465118, -0.02758457511663437, 0.1693870723247528, 0.12923553586006165, 0.021381184458732605, 0.05628018081188202, -0.04499169439077377, -0.1819111853837967, -0.14331142604351044, 0.15847235918045044, -0.02369985543191433, 0.048951368778944016, -0.11475665122270584, 0.11233389377593994, -0.03565937280654907, 0.07493145018815994, -0.042968228459358215, -0.1869034618139267, 0.11854292452335358, -0.06451752036809921, 0.05982931703329086, -0.08718836307525635, 0.00109390530269593, -0.03079949878156185, 0.18810637295246124, -0.14003603160381317, -0.15881694853305817, 0.0875689908862114, 0.1259559541940689, -0.11190439760684967, -0.025838904082775116, -0.04858693107962608, -0.11825801432132721, 0.06319607049226761, 0.12435422092676163, -0.05692797899246216, -0.007210819981992245, -0.10613247007131577, 0.0785430371761322, -0.0838443711400032, 0.1585848480463028, 0.0579412616789341, -0.14060932397842407, 0.19744975864887238, 0.2396826595067978, -0.10167337954044342, -0.15084215998649597, -0.030715562403202057, 0.062392860651016235, -0.08992381393909454, -0.08954135328531265, -0.1555386185646057, 0.07366371154785156, 0.1337866485118866, 0.057479750365018845, -0.03196248039603233, -0.0860801413655281, 0.017308039590716362, -0.17007564008235931, 0.11318831145763397, -0.1598975509405136, -0.14835669100284576, -0.2230711728334427, 0.0616656132042408, -0.12443516403436661, 0.16467730700969696, 0.09011828899383545, -0.025736134499311447, -0.017785880714654922, -0.17452985048294067, -0.04713313654065132, -0.18203440308570862, -0.1472335308790207, 0.17909583449363708, -0.03669185936450958, 0.06959317624568939, 0.0051244208589196205, 0.09179816395044327, 0.03235350549221039, 0.1279401034116745, -0.1498202085494995, 0.05996464937925339, 0.07319910079240799, 0.11754277348518372, 0.08102376759052277, -0.06721045076847076, 0.11246626079082489, 0.020245788618922234, 0.05369282513856888, -0.15551988780498505, -0.14990440011024475, 0.023923948407173157, 0.03360294923186302], [-0.0395590215921402, 0.009537075646221638, 0.07647982239723206, -0.10500355064868927, 0.09264014661312103, -0.12847135961055756, -0.1152418926358223, -0.09790593385696411, 0.05696182698011398, 0.01068403571844101, 0.16901880502700806, 0.08959968388080597, -0.04013421759009361, 0.016770781949162483, 0.0005517152021639049, -0.015994885936379433, -0.012663445435464382, 0.03129226714372635, 0.00887412577867508, 0.07204626500606537, 0.09230664372444153, -0.10671723634004593, 0.11143296211957932, 0.05401346832513809, -0.08572723716497421, -0.0018327332800254226, 0.10305511206388474, 0.10511564463376999, 0.0019673339556902647, 0.11360538005828857, -0.07808780670166016, -0.12628228962421417, -0.11072413623332977, 0.09561645239591599, -0.05702503025531769, -0.008537660352885723, 0.0011704661883413792, 0.057077210396528244, 0.11925041675567627, -0.21553781628608704, -0.07290436327457428, 0.1095714345574379, 0.11603886634111404, -0.03980456292629242, -0.02574380673468113, -0.030752377584576607, 0.17576590180397034, 0.15093916654586792, 0.037799905985593796, 0.06392211467027664, 0.09068849682807922, 0.008182171732187271, 0.007917341776192188, -0.022157378494739532, -0.00031357238185591996, 0.16394370794296265, 0.025403345003724098, 0.04957541823387146, -0.13695921003818512, -0.0030244425870478153, 0.20806288719177246, 0.06779388338327408, 0.09161733090877533, 0.07393490523099899, 0.05447704717516899, 0.0240634698420763, -0.00858592800796032, 0.14600031077861786, -0.07701470702886581, 0.013739459216594696, 0.03157995268702507, 0.16659903526306152, -0.06085490062832832, -0.001404167152941227, 0.04015075042843819, -0.002792798914015293, 0.008911292999982834, 0.07750308513641357, -0.10115505754947662, -0.11139317601919174, -0.017690517008304596, -0.016221635043621063, -0.03213772550225258, 0.09758399426937103, -0.12414305657148361, 0.01325417309999466, 0.04757427051663399, 0.10980268567800522, -0.12049684673547745, 0.12074784189462662, -0.16349303722381592, -0.07549586892127991, 0.03300490975379944, 0.042075060307979584, 0.17944885790348053, 0.025805184617638588, -0.025439288467168808, -0.008750434964895248, -0.03491504490375519, 0.04945233091711998, -0.10039587318897247, 0.011795389465987682, 0.03247309848666191, 0.15876764059066772, -0.13631097972393036, -0.062478672713041306, -0.014956453815102577, 0.06100604683160782, 0.09674739837646484, -0.11214736849069595, -0.03958267346024513, -0.14890336990356445, 0.02060956135392189, -0.0916736051440239, -0.03007575124502182, -0.10687138885259628, 0.05837232619524002, -0.1447770744562149, 0.05821961164474487, -0.06318289786577225, -0.02580428123474121, -0.04124312847852707, 0.06269469857215881, -0.0021561747416853905, 0.08757799118757248, -0.05208239704370499, -0.0957302525639534, 0.1130344420671463], [-0.0005449415184557438, -0.11114449799060822, -0.1571008861064911, 0.19463562965393066, 0.05719617009162903, -0.055862460285425186, -0.08006998896598816, 0.16635902225971222, -0.1398390382528305, 0.008288622833788395, 0.06806492060422897, 0.2724780738353729, 0.10879886895418167, -0.07804573327302933, 0.16100621223449707, 0.01034169364720583, 0.14526155591011047, -0.004716597497463226, 0.05100125074386597, 0.05185960605740547, 0.08943645656108856, 0.10363788902759552, 0.050848476588726044, 0.06579314917325974, -0.09196187555789948, 0.06244107708334923, -0.04253552481532097, 0.11835001409053802, 0.06388990581035614, 0.07932761311531067, 0.011330600827932358, -0.11349663883447647, 0.17973002791404724, -0.12996570765972137, -0.06192046403884888, 0.07429011911153793, -0.057669948786497116, -0.12174395471811295, 0.10193165391683578, 0.19486646354198456, -0.1506226658821106, 0.22434742748737335, 0.004812368657439947, 0.058924127370119095, -0.012383203953504562, -0.1432449370622635, -0.0568464957177639, -0.1161191537976265, 0.08518137782812119, 0.04584989696741104, -0.1328672170639038, 0.24647590517997742, -0.032992057502269745, 0.07081592082977295, 0.035581693053245544, 0.11640036106109619, 0.009797004982829094, 0.14755511283874512, -0.15416650474071503, 0.15097704529762268, -0.06781262159347534, 0.11216478794813156, 0.07943439483642578, -0.06843740493059158, -0.0695764496922493, 0.11449237912893295, 0.1273256540298462, 0.16567842662334442, -0.061229415237903595, 0.026421349495649338, -0.11042185872793198, -0.12306085973978043, 0.09561126679182053, -0.014753816649317741, -0.13616622984409332, 0.0026104662101715803, 0.11424402892589569, -0.11160880327224731, 0.1412697434425354, 0.0024228456895798445, 0.02123301289975643, -0.02671012282371521, -0.15508542954921722, 0.03869892284274101, -0.06359615176916122, 0.23184184730052948, 0.002891572890803218, 0.1422775834798813, -0.007043137680739164, -0.06924086064100266, -0.08379030227661133, 0.19652339816093445, -0.18452057242393494, -0.15896575152873993, -0.09119827300310135, -0.0350201390683651, 0.029927026480436325, 0.014185532927513123, -0.13527138531208038, 0.05081591010093689, 0.03219025209546089, -0.10157577693462372, -0.0617557093501091, 0.021292857825756073, 0.10790606588125229, -0.0009893698152154684, 0.1492965668439865, -0.12299733608961105, 0.007053465582430363, -0.23495647311210632, -0.1112053245306015, -0.11202308535575867, 0.018850285559892654, -0.028543906286358833, -0.007366824429482222, -0.07776705175638199, -0.013026020489633083, -0.1681331992149353, -0.11817646771669388, -0.030937019735574722, -0.12961062788963318, -0.011564487591385841, 0.10116807371377945, -0.13852155208587646, -0.00018876988906413317, -0.08103226870298386, 0.03220415115356445, 0.06744267046451569], [0.20883525907993317, -0.018433889374136925, 0.039926618337631226, 0.1741398423910141, -0.16109642386436462, -0.06086236238479614, 0.07809746265411377, -0.09575384855270386, -0.004031865391880274, -0.1718330681324005, -0.013038074597716331, -0.16775843501091003, 0.20978669822216034, -0.008251653984189034, 0.009318381547927856, 0.0008498912793584168, -0.09925968199968338, -0.1044272854924202, 0.1332511305809021, 0.016650844365358353, -0.19489410519599915, -0.003354406449943781, -0.05695062875747681, -0.006262391339987516, -0.1131180077791214, -0.19382324814796448, -0.014302171766757965, -0.25799688696861267, 0.06294478476047516, -0.0002834442420862615, -0.02794305607676506, -0.22665266692638397, 0.07984311878681183, 0.05419633165001869, -0.09826242923736572, 0.006548793986439705, -0.03578736260533333, 0.16302259266376495, -0.09986890852451324, -0.02719086967408657, -0.06664116680622101, 0.04172605276107788, 0.017427965998649597, 0.07634051889181137, 0.3092689514160156, -0.049891434609889984, -0.002924572676420212, 0.23216135799884796, 0.1546170562505722, -0.1110287606716156, -0.03810529410839081, 0.057271502912044525, 0.07062900811433792, -0.04648019000887871, -0.11446808278560638, -0.19955481588840485, 0.05049119144678116, -0.23607154190540314, 0.05750006437301636, -0.09971500188112259, 0.006003549322485924, -0.23537124693393707, -0.020123066380620003, 0.3029903769493103, 0.036283381283283234, -0.09138181805610657, -0.09312395751476288, -0.03060474619269371, -0.0709247887134552, -0.07309042662382126, 0.13043436408042908, -0.14545005559921265, 0.12420244514942169, -0.02742314524948597, -0.22659194469451904, 0.007948074489831924, -0.08282334357500076, 0.10167402774095535, -0.17330330610275269, 0.18903958797454834, 0.16135746240615845, 0.09891001880168915, -0.13924835622310638, 0.2036750465631485, -0.04579736664891243, -0.17022790014743805, 0.009422947652637959, -0.08161207288503647, -0.04451353847980499, 0.024367405101656914, 0.0005272785783745348, -0.05004649609327316, 0.02806680090725422, 0.02951211854815483, 0.0232342928647995, -0.13908763229846954, 0.233774796128273, 0.10822822153568268, 0.08689574897289276, -0.1410512775182724, 0.07693411409854889, -0.22011776268482208, -0.16178594529628754, -0.13468171656131744, -0.09904240071773529, -0.03013044223189354, 0.21571817994117737, 0.27080830931663513, 0.08785432577133179, -0.0022981218062341213, -0.0638447180390358, 0.1329123079776764, -0.19344191253185272, -0.17664703726768494, 0.1385515034198761, -0.03375116363167763, -0.023890070617198944, 0.23873862624168396, -0.060225170105695724, -0.036620620638132095, -0.08613631874322891, -0.0777508094906807, 0.02224389836192131, -0.001693326630629599, -0.030428200960159302, 0.003723343601450324, -0.03102845884859562, 0.22600673139095306], [0.054544612765312195, -0.09095273166894913, 0.12180738151073456, 0.0005316293681971729, 0.115046426653862, 0.014246680773794651, -0.14523622393608093, 0.10031379759311676, 0.05849628895521164, -0.015743499621748924, 0.02184414677321911, -0.12353382259607315, -0.08375968784093857, 0.06739211082458496, -0.010989915579557419, -0.14976514875888824, -0.1054997369647026, -0.15250124037265778, 0.015428861603140831, 0.04422839730978012, 0.17933788895606995, -0.001674425438977778, 0.07474981993436813, -0.14652536809444427, -0.0826413631439209, -0.0426778718829155, -0.05377713590860367, 0.03645327687263489, -0.0679440125823021, -0.011866096407175064, -0.04169503599405289, -0.07095762342214584, -0.1301293820142746, 0.02270207367837429, 0.0906156674027443, 0.050653230398893356, -0.08519339561462402, 0.12017017602920532, -0.11593208461999893, 0.09155948460102081, -0.16448579728603363, 0.06840916723012924, -0.065923772752285, -0.10391675680875778, -0.08173453062772751, -0.14194315671920776, -0.07660987973213196, 0.10790575295686722, -0.10360708087682724, -0.026001306250691414, -0.05166615918278694, -0.026114780455827713, -0.09961379319429398, -0.09898471087217331, 0.12340345233678818, 0.12718355655670166, -0.13826817274093628, 0.042242035269737244, 0.053029097616672516, 0.0669841542840004, 0.0632380023598671, 0.19413864612579346, -0.0584690198302269, -0.06353185325860977, -0.13659463822841644, 0.015813779085874557, -0.0021930146031081676, -0.07473822683095932, -0.003447521710768342, 0.129489004611969, -0.07732417434453964, 0.06510521471500397, -0.09006518125534058, 0.13540728390216827, 0.008957546204328537, 0.02105391025543213, 0.1321071982383728, 0.06934001296758652, 0.06118190661072731, 0.09149926155805588, -0.10056149959564209, -0.058768123388290405, -0.11507509648799896, 0.10987340658903122, -0.08414122462272644, 0.00443175109103322, 0.03618915006518364, -0.042394597083330154, -0.054275836795568466, -0.07607981562614441, -0.0628247782588005, 0.17290017008781433, -0.16050224006175995, 0.16570033133029938, 0.17223821580410004, -0.06062087044119835, -0.02264959178864956, 0.15881450474262238, 0.03785029426217079, -0.027884600684046745, -0.07317034155130386, 0.007610331755131483, -0.040534697473049164, 0.023180417716503143, -0.0048794979229569435, -0.06236011162400246, -0.008821197785437107, -0.10243463516235352, -0.11836301535367966, 0.10381103307008743, 0.09851063787937164, -0.0728088766336441, -0.00853653158992529, -0.02675631269812584, 0.015867864713072777, -0.11802988499403, -0.054081544280052185, 0.05644917115569115, -0.13723595440387726, 0.10374542325735092, -0.12203804403543472, 0.05907855182886124, 0.00876529235392809, -0.052549537271261215, 0.1186077669262886, -0.02631457895040512, 0.1263582706451416, 0.07676643878221512], [-0.13796547055244446, -0.08474844694137573, -0.11241926997900009, -0.08710704743862152, 0.004782955627888441, -0.16653533279895782, -0.09076062589883804, -0.042063597589731216, -0.15602676570415497, -0.10619615763425827, 0.1048293337225914, -0.13248170912265778, -0.14681550860404968, 0.00491498364135623, -0.07348322868347168, -0.14352113008499146, 0.06189265847206116, -0.13077054917812347, -0.004323148634284735, 0.009171108715236187, -0.015331096015870571, -0.038874201476573944, 0.14664395153522491, 0.16490231454372406, -0.12836651504039764, 0.14384408295154572, -0.12343215942382812, -0.009340887889266014, 0.030626673251390457, -0.09608995914459229, -0.12726281583309174, 0.014023805968463421, 0.03206368908286095, -0.1335347592830658, 0.03810063377022743, 0.047544825822114944, 0.1375722587108612, 0.14334265887737274, -0.0673610121011734, -0.03620671480894089, 0.03569624200463295, -0.05661816522479057, 0.13591690361499786, 0.05129622295498848, 0.06795158237218857, 0.12317100167274475, 0.017742766067385674, -0.06860347837209702, -0.2155539095401764, 0.20048964023590088, -0.09860584884881973, 0.08354724943637848, 0.1270604431629181, -0.023669840767979622, 0.033330224454402924, 0.02862641215324402, 0.1780177354812622, -0.020595641806721687, 0.161583811044693, -0.006854194216430187, 0.1452740579843521, -0.020780345425009727, -0.017392395064234734, 0.12475037574768066, -0.08909808099269867, -0.029951943084597588, -0.017143549397587776, 0.12399585545063019, -0.07885069400072098, -0.024133747443556786, 0.049203597009181976, -0.1467040330171585, 0.19774331152439117, 0.14048607647418976, -0.0016022148774936795, 0.012345668859779835, 0.1666431725025177, 0.11225970834493637, 0.12033099681138992, 0.011965514160692692, 0.14564400911331177, -0.06243203580379486, -0.08749210089445114, 0.0655422955751419, -0.16920527815818787, -0.05864014849066734, -0.14872680604457855, -0.046024139970541, -0.01599707640707493, -0.04315577819943428, 0.13539104163646698, 0.1010206937789917, 0.09085411578416824, 0.076064832508564, -0.13574594259262085, -0.10923970490694046, 0.22396625578403473, 0.24226762354373932, 0.1722707450389862, -0.004658612422645092, -0.1405298113822937, 0.15745970606803894, 0.061485566198825836, 0.030163249000906944, -0.09095814824104309, 0.2562214136123657, -0.1373656839132309, 0.0036805106792598963, -0.21872612833976746, -0.008877353742718697, 0.13798196613788605, -0.006544803734868765, 0.029049310833215714, 0.0009495532140135765, -0.11694569140672684, -0.05811343342065811, 0.1188729926943779, 0.03061782382428646, -0.10344143211841583, 0.01682594045996666, -0.026041075587272644, 0.003896427573636174, -0.17051182687282562, 0.04245857521891594, 0.037564124912023544, -0.15738369524478912, -0.2019031047821045, -0.1459820419549942], [0.23161518573760986, -0.03216548636555672, -0.09654831141233444, 0.24129588901996613, -0.12288615107536316, -0.14479957520961761, -0.04574147239327431, -0.10343077778816223, 0.22557684779167175, 0.14859750866889954, -0.05700099095702171, -0.10003575682640076, 0.17402498424053192, -0.16250835359096527, 0.06092807278037071, 0.15311582386493683, 0.055671997368335724, -0.1304374635219574, 0.11240668594837189, 0.15137742459774017, -0.0006867526681162417, -0.0751853883266449, -0.021250104531645775, -0.014420204795897007, -0.061377864331007004, -0.0036594662815332413, -0.039544980973005295, 0.012316728942096233, -0.07608756422996521, -0.09227718412876129, 0.09265531599521637, -0.13334132730960846, 0.04058238863945007, 0.2118782103061676, 0.17630909383296967, 0.16388705372810364, -0.1475614458322525, 0.0694681778550148, -0.09631234407424927, -0.07976736128330231, -0.14512117207050323, -0.03819551318883896, -0.12049058079719543, -0.0475848987698555, 0.08101549744606018, -0.08009858429431915, 0.04606616124510765, 0.07486909627914429, 0.24668587744235992, -0.1978045105934143, -0.173317551612854, 0.007046195212751627, -0.014807005412876606, 0.07899165153503418, 0.07673650234937668, -0.09444572031497955, 0.05308276787400246, 0.11759456247091293, 0.03514789789915085, 0.18062086403369904, -0.09958161413669586, -0.121458038687706, 0.1520923227071762, 0.08170709013938904, -0.12747356295585632, -0.01751834899187088, -0.07788302004337311, -0.02380216307938099, -0.10195403546094894, 0.19285982847213745, -0.1747693121433258, 0.17623764276504517, 0.03425018861889839, -0.1304469108581543, 0.0061891693621873856, -0.08978946506977081, 0.0018482391024008393, 0.04554712772369385, 0.17919756472110748, 0.08990046381950378, -0.04881399869918823, -0.1428132802248001, 0.039847277104854584, -0.05425817891955376, -0.08665046840906143, -0.12986329197883606, -0.009550406597554684, 0.14103733003139496, 0.11220002919435501, 0.15321598947048187, -0.16257818043231964, 0.06864228844642639, 0.13512027263641357, 0.030131259933114052, -0.015080248937010765, -0.14282603561878204, 0.025640811771154404, -0.15999431908130646, -0.08593899756669998, -0.06648463010787964, 0.20131151378154755, 0.05105246603488922, 0.08658093214035034, 0.03963330015540123, -0.039232321083545685, -0.20457415282726288, -0.038878440856933594, 0.11931212991476059, -0.03779983893036842, 0.09299016743898392, -0.10554633289575577, 0.055723246186971664, 0.05870966240763664, -0.011668064631521702, 0.17585784196853638, -0.10283198952674866, 0.013575819320976734, 0.0863385796546936, -0.12698958814144135, 0.09937027096748352, 0.09452090412378311, -0.09061525762081146, -0.024477532133460045, 0.022438323125243187, -0.0593869611620903, -0.1040821224451065, -0.1327771246433258, -0.04577261582016945], [-0.09050989896059036, -0.01352321170270443, 0.26425158977508545, 0.08182966709136963, 0.07420223206281662, 0.060217954218387604, -0.1117599606513977, 0.022295037284493446, 0.12005152553319931, 0.013228720054030418, -0.14824913442134857, -0.1562895029783249, 0.07043831795454025, 0.09879735857248306, -0.12633675336837769, 0.05824732780456543, -0.01188931055366993, 0.12302704155445099, 0.053422775119543076, -0.026381323114037514, -0.026172930374741554, -0.17935262620449066, -0.10949796438217163, 0.059403542429208755, 0.019407520070672035, -0.17002590000629425, 0.07631810009479523, -0.05990193411707878, 0.2258538156747818, 0.07123090326786041, 0.054915815591812134, 0.05976713448762894, -0.06320416927337646, -0.11302869766950607, 0.12384127080440521, 0.1384713053703308, 0.036978717893362045, 0.06358258426189423, 0.12675611674785614, -0.16592706739902496, 0.18595480918884277, -0.17918379604816437, 0.19568800926208496, 0.04423096403479576, 0.056776147335767746, 0.03853847458958626, -0.1282178908586502, 0.1424240618944168, 0.13251656293869019, -0.010507043451070786, -0.10825586318969727, -0.020487261936068535, 0.0941123440861702, 0.12713627517223358, -0.08819801360368729, 0.005288966931402683, -0.1646054983139038, 0.09063828736543655, -0.06024712696671486, 0.14740979671478271, 0.09948014467954636, 0.05107179656624794, 0.033117059618234634, -0.08081638813018799, 0.08543922007083893, -0.016860419884324074, 0.1455945521593094, -0.1386711746454239, 0.10279825329780579, 0.04621574655175209, -0.009165612049400806, -0.0175348911434412, -0.05216411501169205, 0.17493315041065216, -0.009991439059376717, -0.06733388453722, 0.08054415881633759, -0.16111183166503906, -0.04440779983997345, 0.08690670132637024, 0.0031025076750665903, -0.17495794594287872, -0.12297040969133377, -0.04348888620734215, 0.050823111087083817, 0.03647381439805031, -0.024547221139073372, -0.06522707641124725, 0.13224631547927856, -0.13284136354923248, 0.017320541664958, 0.056476883590221405, -0.024475252255797386, 0.11514566838741302, -0.07598304748535156, -0.06669359654188156, -0.031701523810625076, -0.07465175539255142, 0.2261659801006317, -0.09744575619697571, -0.10559827834367752, -0.11640505492687225, -0.06683911383152008, 0.07903952896595001, 0.09183623641729355, -0.0025338490959256887, -0.09932344406843185, 0.16516318917274475, -0.07857995480298996, 0.23037497699260712, -0.17638643085956573, 0.039760664105415344, 0.11860265582799911, 0.062041107565164566, -0.14953789114952087, 0.0784410610795021, 0.26116442680358887, 0.0718497559428215, -0.027265455573797226, 0.06002640724182129, -0.13404159247875214, 0.0988977923989296, -0.1306174248456955, 0.08153364807367325, -0.030937088653445244, 0.004756055306643248, 0.1442798525094986, 0.004697226453572512], [0.06825651228427887, 0.005377942230552435, 0.03803194686770439, -0.11769598722457886, 0.05967491492629051, 0.04596861079335213, 0.0016248025931417942, 0.14733803272247314, 0.126165971159935, 0.17663510143756866, -0.07413741201162338, -0.11471129208803177, -0.06744889169931412, 0.0028641894459724426, -0.12413182854652405, -0.015560220927000046, -0.14416222274303436, -0.1061263158917427, -0.09439176321029663, -0.10009562224149704, -0.19521886110305786, 0.004171538166701794, -0.017527155578136444, 0.17779457569122314, 0.12759622931480408, 0.1258956640958786, -0.101262666285038, -0.07363609969615936, 0.2798381745815277, 0.17144563794136047, 0.20772123336791992, 0.028076346963644028, 0.11645033955574036, 0.006554767023772001, -0.017985019832849503, -0.004093355964869261, -0.1339963972568512, -0.17349928617477417, 0.008582226000726223, -0.12043456733226776, -0.11207566410303116, -0.016063950955867767, -0.10895319283008575, -0.006742394063621759, -0.03149382025003433, -0.1149476170539856, 0.012246846221387386, 0.029304740950465202, -0.1176375225186348, -0.1324572116136551, -0.08669132739305496, 0.00016358790162485093, -0.0992923378944397, 0.06307205557823181, -0.1529194563627243, 0.0796462893486023, -0.020440254360437393, -0.11098889261484146, 0.1848495602607727, -0.012246414087712765, 0.1252817064523697, 0.08131443709135056, 0.1554427295923233, 0.024264080449938774, -0.12192676961421967, -0.18641769886016846, -0.02669418789446354, 0.04702506214380264, 0.191179096698761, -0.1165722981095314, 0.14721670746803284, -0.024345584213733673, 0.11170963197946548, -0.08083174377679825, 0.019874131307005882, 0.23014050722122192, -0.11005283147096634, 0.1205042377114296, 0.013843201100826263, -0.043770402669906616, -0.028730034828186035, 0.045628566294908524, 0.24213552474975586, -0.12551480531692505, 0.1813139170408249, 0.2041046917438507, -0.1460437774658203, -0.013158909976482391, 0.045086007565259933, 0.0029450180009007454, 0.057452015578746796, 0.009804395958781242, 0.004924825392663479, -0.09935303032398224, -0.07025901228189468, -0.03443332761526108, 0.1558418571949005, -0.2030051201581955, -0.053754862397909164, -0.04187668114900589, 0.05999167263507843, 0.02560666762292385, -0.09720128029584885, -0.12621761858463287, 0.0367593914270401, 0.0423029288649559, 0.047041140496730804, -0.11425082385540009, 0.02891404554247856, -0.1541186273097992, -0.06645341962575912, 0.08857247978448868, 0.13889342546463013, -0.1619051992893219, 0.09902084618806839, 0.009553996846079826, -0.08739230036735535, 0.177500918507576, -0.01910797320306301, 0.04979931190609932, 0.2259906828403473, 0.07295011729001999, -0.03392881527543068, -0.10339085012674332, -0.0006165765807963908, 0.1217212826013565, -0.06654785573482513, -0.031812917441129684], [0.06827373802661896, -0.14110757410526276, -0.1644732654094696, -0.08589362353086472, -0.07847904413938522, 0.02289624884724617, 0.1951235681772232, 0.026190204545855522, -0.020953407511115074, 0.1825316846370697, -0.026750165969133377, 0.1247941181063652, -0.023102890700101852, -0.04812280461192131, -0.0678008571267128, 0.15045329928398132, -0.08363182097673416, 0.11372676491737366, 0.07148174196481705, 0.008966250345110893, -0.06976024061441422, -0.1614709198474884, 0.09717409312725067, 0.24182775616645813, 0.024741390720009804, 0.0032604357693344355, 0.06311771273612976, 0.1534327119588852, 0.21181313693523407, 0.1036304235458374, 0.14316867291927338, -0.08011221140623093, 0.008375294506549835, 0.13210181891918182, -0.09867765754461288, -0.0019369634101167321, 0.08390089869499207, 0.0019916205201298, 0.09734410792589188, 0.039083320647478104, -0.18888318538665771, -0.025795824825763702, 0.011089993640780449, -0.20687587559223175, 0.03185317665338516, -0.07240031659603119, -0.032337527722120285, 0.032044824212789536, -0.02964690327644348, -0.009249859489500523, 0.03541025146842003, 0.046461258083581924, -0.11008931696414948, 0.01332793291658163, 0.11246311664581299, 0.04255467653274536, 0.05450001731514931, 0.08389746397733688, 0.09230472892522812, -0.1430012285709381, 0.012252748012542725, 0.024252019822597504, 0.03596663102507591, -0.12492925673723221, 0.07215570658445358, -0.2341548353433609, -0.10598951578140259, -0.1051555797457695, 0.1310638189315796, -0.13474509119987488, -0.10622994601726532, -0.13895457983016968, 0.16502068936824799, -0.03266584500670433, 0.08947250247001648, 0.271881103515625, -0.22418993711471558, 0.051436055451631546, 0.09229623526334763, -0.11790512502193451, -0.06936509162187576, -0.054915279150009155, 0.1931915581226349, -0.11079185456037521, 0.08488354086875916, 0.14093132317066193, -0.08594658225774765, 0.09159214794635773, 0.23724816739559174, -0.2030056267976761, 0.13698789477348328, -0.11753194034099579, 0.042097125202417374, -0.056527089327573776, 0.15743446350097656, 0.043904274702072144, 0.13405410945415497, -0.007757296320050955, 0.03348620608448982, -0.10604872554540634, -0.036537379026412964, 0.05693215876817703, -0.10164792835712433, 0.006475959904491901, -0.11418016254901886, 0.030237602069973946, 0.051216356456279755, -0.10679181665182114, -0.10000023245811462, 0.03315245360136032, -0.09138206392526627, 0.1763281524181366, 0.061551373451948166, -0.03846368566155434, -0.02086617797613144, -0.09628414362668991, -0.06959211081266403, -0.0028358239214867353, -0.01531010027974844, -0.13010427355766296, 0.1781609207391739, 0.024560600519180298, 0.18512147665023804, -0.1865026205778122, 0.06635213643312454, 0.018142884597182274, 0.05984846502542496, -0.062183309346437454], [-0.08677893877029419, -0.10656729340553284, -0.09376420080661774, -0.11763443797826767, 0.19388313591480255, 0.07040257006883621, 0.04792438820004463, 0.10690249502658844, 0.17097577452659607, 0.1667187213897705, 0.17373420298099518, -0.12507109344005585, -0.11183219403028488, 0.10167933255434036, -0.17561198770999908, 0.06602810323238373, 0.04102218896150589, 0.028672771528363228, -0.11405550688505173, -0.10649730265140533, 0.18220166862010956, 0.04911847040057182, -0.1399831473827362, 0.13199792802333832, 0.16495968401432037, 0.029325472190976143, -0.12065108865499496, 0.045973118394613266, -0.14323297142982483, -0.017587149515748024, -0.09863957017660141, 0.07874944061040878, 0.012626645155251026, 0.002851828234270215, -0.17937298119068146, 0.02146172896027565, -0.03250785544514656, 0.07826961576938629, -0.11083955317735672, 0.053230784833431244, -0.006377489771693945, -0.013152891770005226, 0.0032809812109917402, -0.08014316111803055, 0.011644287034869194, -0.1292092204093933, 0.16995437443256378, -0.06639394909143448, 0.034872546792030334, -0.0053149377927184105, 0.061465274542570114, 0.051165949553251266, 0.08061043173074722, 0.14813241362571716, 0.19150814414024353, 0.19882537424564362, 0.07099311053752899, 0.000977165880613029, -0.13655704259872437, -0.17869402468204498, -0.015927795320749283, 0.14064309000968933, -0.0791601613163948, -0.1259346753358841, -0.06162971630692482, 0.2320239543914795, -0.07106094807386398, -0.035291098058223724, -0.18075045943260193, -0.03786991909146309, -0.0778624638915062, -0.1389339566230774, -0.15771913528442383, -0.10374479740858078, -0.11879517138004303, 0.060495492070913315, 0.20206744968891144, -0.13793694972991943, -0.1931087225675583, 0.052319031208753586, 0.0064645144157111645, 0.0765049010515213, 0.14515630900859833, 0.23800544440746307, -0.05816950649023056, -0.13199084997177124, 0.23438844084739685, 0.0646870955824852, -0.2088610678911209, -0.02048031985759735, -0.1809106022119522, -0.0013069543056190014, -0.17913731932640076, -0.08465959876775742, -0.0154391098767519, -0.009744880720973015, 0.06421729177236557, 0.07064829766750336, -0.02572215162217617, 0.1418365240097046, 0.06589110940694809, -0.08536702394485474, -0.07976201176643372, 0.16568875312805176, -0.14075322449207306, -0.15613605082035065, -0.1788652539253235, 0.23463046550750732, 0.02197294868528843, 0.06748384237289429, 0.21471889317035675, -0.061806436628103256, -0.2120509296655655, -0.052927300333976746, -0.11614150553941727, -0.11200299113988876, -0.12730470299720764, -0.18010511994361877, 0.05273409187793732, -0.059486158192157745, -0.10351765155792236, 0.016269827261567116, 0.2266131341457367, 0.0731707364320755, -0.1398182064294815, 0.06510241329669952, -0.11775839328765869, 0.05307692661881447], [-0.03754705563187599, 0.08948919922113419, 0.08503943681716919, -0.13622896373271942, -0.010732688941061497, 0.22442708909511566, 0.154409259557724, 0.25216880440711975, -0.10448205471038818, -0.019956497475504875, -0.09824959933757782, -0.14013834297657013, 0.13802599906921387, 0.08122116327285767, 0.16974666714668274, 0.07095260918140411, -0.06865325570106506, 0.027361270040273666, 0.20837782323360443, 0.11984078586101532, 0.0013058391632512212, 0.120744988322258, -0.18822163343429565, 0.01473465096205473, 0.18919628858566284, -0.09958802908658981, -0.05882997438311577, 0.03236814960837364, -0.07448556274175644, 0.12411165982484818, -0.06524762511253357, -0.03906422108411789, 0.07202541083097458, 0.1428624540567398, 0.00248868390917778, 0.1586957722902298, -0.06815437227487564, 0.030440226197242737, 0.03087042272090912, 0.12353844195604324, -0.09532048553228378, 0.07754833251237869, -0.01165242213755846, -0.12842941284179688, 0.19870713353157043, -0.00820098165422678, -0.01835610345005989, 0.1305352747440338, 0.16442102193832397, -0.1357904076576233, 0.18477575480937958, 0.08969031274318695, 0.08596275746822357, -0.11269403249025345, 0.014617559500038624, -0.022416353225708008, -0.07652009278535843, 0.03983444720506668, -0.08840137720108032, -0.14840830862522125, -0.0018391429912298918, -0.010189764201641083, 0.025000784546136856, 0.08775608986616135, -0.03535081073641777, 0.04056921973824501, -0.15584895014762878, 0.014655031263828278, -0.04255253076553345, -0.14297261834144592, -0.022557884454727173, 0.057856760919094086, -0.07396098226308823, 0.016729723662137985, -0.08328951150178909, -0.016070915386080742, 0.005692065227776766, 0.15571936964988708, -0.14376865327358246, -0.11196614801883698, -0.08471857011318207, 0.13683058321475983, -0.09095080941915512, -0.0718168094754219, -0.19790996611118317, -0.12056699395179749, 0.12365744262933731, 0.07383859902620316, -0.09259455651044846, -0.09837403893470764, 0.08093173056840897, -0.04841030761599541, 0.08551425486803055, 0.2060922384262085, -0.12880949676036835, 0.14782094955444336, 0.1374700963497162, -0.10169553011655807, -0.019649196416139603, 0.09222538024187088, -0.051496900618076324, -0.006663175765424967, -0.02123027667403221, -0.007590237073600292, -0.045483797788619995, 0.14355771243572235, 0.17966319620609283, -0.1481350064277649, 0.07636349648237228, 0.07858800888061523, -0.02577216923236847, 0.019934067502617836, 0.027249982580542564, -0.11066235601902008, -0.07360031455755234, 0.014449558220803738, -0.18539711833000183, 0.2198784202337265, -0.08414533734321594, 0.10044007748365402, 0.0452265627682209, 0.00865623727440834, 0.10647856444120407, 0.13382317125797272, -0.20225973427295685, 0.05853365361690521, -0.10049492120742798, 0.22025685012340546], [-0.05578301474452019, -0.06835164874792099, 0.1469782143831253, 0.06932498514652252, 0.06305549293756485, -0.10584460198879242, 0.19306856393814087, 0.05834206938743591, -0.04214538261294365, 0.06015556678175926, 0.15953750908374786, 0.07691235095262527, -0.1475839912891388, -0.12478256225585938, 0.029231952503323555, 0.183940127491951, -0.016559576615691185, 0.03380506858229637, -0.11874820291996002, -0.0858018547296524, -0.15189918875694275, 0.02774633839726448, 0.038915663957595825, -0.21739746630191803, -0.16000178456306458, -0.01686946488916874, 0.06922241300344467, -0.019150422886013985, -0.17948952317237854, 0.197017103433609, 0.1851842850446701, 0.08734183013439178, 0.09312822669744492, 0.09519820660352707, 0.17034456133842468, -0.004487098194658756, -0.0912553071975708, 0.08572669327259064, 0.10378123074769974, -0.13691097497940063, 0.021483900025486946, 0.09008269011974335, -0.10069229453802109, 0.06818430870771408, 0.030886977910995483, 0.009798198007047176, 0.1475536972284317, 0.06349309533834457, -0.19091251492500305, 0.007954353466629982, 0.15488284826278687, -0.039510663598775864, 0.06320668756961823, 0.0769016444683075, -0.005704699549823999, 0.06299924850463867, 0.028238538652658463, -0.06498978286981583, -0.11855648458003998, -0.05386124178767204, 0.0012602637289091945, -0.05937202274799347, -0.1018134206533432, -0.12476131319999695, 0.24733996391296387, -0.04292874038219452, -0.04685702919960022, 0.019099730998277664, -0.0610356330871582, 0.08910366892814636, 0.23931923508644104, 0.20972558856010437, -0.10218238830566406, -0.16561877727508545, 0.0018043710151687264, -0.04056330770254135, -0.1581784039735794, 0.009203772060573101, -0.09700557589530945, -0.07950897514820099, 0.08156323432922363, 0.11923027783632278, -0.11978472769260406, 0.03322075307369232, -0.14706751704216003, 0.12285012006759644, 0.006434067618101835, 0.04671016335487366, -0.152187317609787, 0.21583786606788635, -0.07432638853788376, -0.1266346275806427, -0.12086115032434464, -0.045550063252449036, -0.06467244774103165, 0.009957956150174141, -0.030185766518115997, 0.01590985246002674, 0.10624802112579346, 0.2389710545539856, -0.05060514807701111, -0.16584834456443787, 0.04498375579714775, 0.0962122455239296, 0.09282442927360535, 0.19328264892101288, -0.07524332404136658, 0.03760693594813347, 0.06231331825256348, -0.06484507024288177, -0.08463943004608154, -0.0628119707107544, 0.00040267716394737363, -0.023239796981215477, 0.012088705785572529, -0.0880337730050087, 0.08979716897010803, 0.19036561250686646, 0.1667848825454712, 0.16982655227184296, 0.029150811955332756, -0.15846344828605652, -0.11085619777441025, -0.07276658713817596, -0.032924022525548935, 0.0839468389749527, -0.15726260840892792, -0.12799739837646484], [0.05641767755150795, -0.12516473233699799, 0.02265852876007557, -0.08570011705160141, -0.1810142695903778, 0.014369772747159004, 0.027034839615225792, 0.1288255751132965, -0.09283972531557083, -0.15861836075782776, 0.005851867608726025, -0.0736139565706253, 0.07954277098178864, -0.09718723595142365, 0.09755969047546387, 0.05523243546485901, 0.04702775925397873, -0.08636998385190964, 0.2925974726676941, 0.11276120692491531, -0.14386184513568878, 0.1303655058145523, -0.005493747070431709, -0.12903337180614471, 0.27227526903152466, 0.12539848685264587, -0.10772141069173813, 0.2053510695695877, 0.05798986926674843, -0.14514940977096558, 0.07737433910369873, 0.03200501948595047, 0.12067326158285141, -0.18772247433662415, -0.03513193503022194, 0.087750144302845, -0.042551517486572266, -0.1157526820898056, -0.05905955284833908, -0.16773565113544464, 0.032394103705883026, 0.01903519034385681, 0.18475525081157684, 0.1148395761847496, -0.2096427083015442, -0.015909427776932716, -0.14673681557178497, -0.06682682782411575, -0.02712845243513584, 0.08020355552434921, 0.0776127278804779, -0.06724098324775696, 0.02160700224339962, -0.1693442165851593, 0.1127176433801651, 0.033466700464487076, -0.11225799471139908, 0.044882357120513916, 0.16537955403327942, -0.06867878884077072, -0.09634328633546829, 0.12471376359462738, -0.21783524751663208, -0.013309535570442677, -0.15536238253116608, -0.05283491685986519, 0.09911248832941055, 0.020261133089661598, 0.17749610543251038, -0.03028327226638794, 0.09885784238576889, -0.041352998465299606, -0.053604815155267715, -0.09802711009979248, -0.12016401439905167, -0.14900727570056915, -0.05237613618373871, 0.17677702009677887, 0.0541556254029274, 0.055112823843955994, -0.13409774005413055, 0.0008850422454997897, 0.15856540203094482, -0.04514406993985176, 0.015002829022705555, -0.11592748761177063, 0.09068703651428223, 0.03825356066226959, -0.12999515235424042, 0.22500117123126984, 0.08786269277334213, -0.19154931604862213, -0.1036292091012001, -0.05508687347173691, 0.2632770240306854, 0.11513569205999374, -0.024525843560695648, 0.03210197016596794, 0.08396157622337341, 0.15755502879619598, -0.05711011961102486, 0.04900526627898216, 0.1407352089881897, 0.05686737224459648, 0.010259910486638546, -0.12222553044557571, 0.06188992038369179, 0.03172411397099495, 0.06369660794734955, -0.09455973654985428, -0.20392759144306183, -0.08673413097858429, 0.09028113633394241, 0.12400989234447479, 0.02016357146203518, 0.10766450315713882, 0.02524671144783497, 0.07899754494428635, -0.07004893571138382, -0.01897277683019638, 0.020691562443971634, 0.14516589045524597, -0.021947167813777924, 0.19845950603485107, 0.038090839982032776, -0.028119880706071854, 0.2122107446193695, 0.054942768067121506], [-0.035180121660232544, -0.16562624275684357, 0.02771938592195511, -0.004774528089910746, -0.13700760900974274, -0.21153965592384338, 0.21398356556892395, -0.11133367568254471, -0.032710734754800797, -0.0870550125837326, 0.20281948149204254, 0.19727542996406555, -0.20262400805950165, 0.01323478203266859, -0.09707088023424149, 0.21263635158538818, 0.19913558661937714, -0.04157295450568199, 0.15711940824985504, 0.09822051227092743, -0.10851293802261353, -0.10549084842205048, -0.040248140692710876, -0.07244076579809189, -0.03092755191028118, 0.18352729082107544, 0.10963790118694305, 0.009982960298657417, -0.01845923624932766, 0.010106652975082397, 0.06859736889600754, 0.22451598942279816, -0.03613222762942314, -0.11524629592895508, -0.017537618055939674, -0.03837002068758011, 0.1354951113462448, -0.009140633046627045, -0.011009582318365574, -0.11796169728040695, -0.14839467406272888, -0.1259469985961914, 0.12935136258602142, 0.06405727565288544, -0.08920532464981079, 0.1521218717098236, 0.12800383567810059, -0.05576220899820328, -0.06343283504247665, 0.09839379042387009, 0.2034895122051239, -0.12183485180139542, 0.23724348843097687, -0.1462419182062149, -0.08347466588020325, 0.0367027223110199, 0.027441708371043205, -0.11012112349271774, 0.1633387953042984, -0.10024115443229675, 0.013756637461483479, -0.18383386731147766, -0.15037906169891357, -0.13592270016670227, 0.030967039987444878, -0.04832463711500168, -0.015550577081739902, 0.22687125205993652, 0.23700401186943054, 0.1207851767539978, -0.0304400771856308, -0.039409980177879333, 0.06888274103403091, -0.13481152057647705, -0.19988498091697693, -0.19744236767292023, -0.08848575502634048, -0.10658318549394608, 0.11829873919487, -0.13346123695373535, -0.15558122098445892, -0.14706267416477203, -0.02153506688773632, -0.1444748193025589, -0.06697019189596176, -0.01733611710369587, 0.22998401522636414, -0.19718071818351746, -0.04738406464457512, 0.052068501710891724, 0.15765316784381866, 0.016323698684573174, -0.09641585499048233, 0.02625814639031887, 0.08514442294836044, 0.12561756372451782, 0.006603367626667023, -0.03632671386003494, 0.017082978039979935, 0.130231112241745, 0.10039954632520676, -0.15962807834148407, 0.016612239181995392, 0.00848088227212429, 0.002232501981779933, 0.07756628096103668, -0.07449547946453094, 0.03447365015745163, 0.18152712285518646, 0.04033487290143967, 0.05295729637145996, -0.11322712898254395, -0.11959361284971237, 0.024282073602080345, -0.16287162899971008, 0.18109585344791412, -0.11252177506685257, 0.060394536703825, 0.18631744384765625, 0.15210281312465668, -0.11040594428777695, 0.03351189196109772, 0.061439767479896545, 0.1286293864250183, -0.0552377924323082, -0.09668401628732681, 0.19850870966911316, 0.08911492675542831], [0.07296108454465866, -0.13327257335186005, -0.2039303481578827, 0.20009173452854156, -0.18578700721263885, -0.12939321994781494, -0.1864149272441864, 0.03587907925248146, -0.047706928104162216, -0.0673874169588089, 0.09211946278810501, 0.1323065161705017, -0.068275086581707, -0.1017228290438652, -0.16226732730865479, 0.13461482524871826, -0.09886264055967331, 0.21427354216575623, -0.2318428009748459, 0.10387963056564331, -0.1538309007883072, 0.11098702251911163, -0.0897187814116478, -0.03442364186048508, -0.1372818797826767, 0.011389249935746193, 0.0002343147061765194, 0.01422787457704544, -0.09558611363172531, -0.1527375727891922, -0.1645662486553192, -0.08989328891038895, 0.31704241037368774, -0.05133512616157532, -0.005380327347666025, -0.016421930864453316, 0.19687384366989136, 0.12077262997627258, 0.15157249569892883, -0.09847049415111542, -0.19951927661895752, 0.106789231300354, -0.1424928456544876, 0.1887122243642807, 0.05228864774107933, 0.22390387952327728, -0.018927721306681633, -0.07084619998931885, -0.05277465283870697, 0.16255225241184235, -0.1309533268213272, 0.01090818177908659, -0.06416585296392441, 0.18274670839309692, 0.050819192081689835, -0.07900309562683105, 0.2318599969148636, 0.11508339643478394, -0.1182110607624054, 0.06025611609220505, 0.14719176292419434, -0.17398183047771454, 0.2689853012561798, 0.2753415107727051, -0.13369503617286682, -0.039162930101156235, 0.04978332296013832, -0.0036374281626194715, 0.1031542643904686, 0.12366588413715363, -0.04694193974137306, 0.0009989190148189664, -0.05468231812119484, 0.051076777279376984, 0.06912660598754883, -0.08135764300823212, 0.08088386058807373, -0.044713977724313736, 0.24394777417182922, 0.08691803365945816, -0.09792544692754745, -0.007519436534494162, -0.14259906113147736, 0.009556458331644535, -0.08919626474380493, -0.06005120277404785, -0.17775386571884155, 0.04464991018176079, 0.012355463579297066, -0.13819395005702972, -0.02268042415380478, -0.03527870401740074, 0.05174241587519646, -0.09579019993543625, -0.1705310344696045, -0.220016747713089, -0.10366600006818771, 0.0450667105615139, -0.11028444766998291, -0.1071854904294014, 0.1671176701784134, 0.17254571616649628, 0.06304706633090973, 0.18270811438560486, 0.03580395504832268, 0.14831222593784332, -0.1781165450811386, 0.14567096531391144, 0.13497145473957062, -0.13952520489692688, -0.07667618244886398, 0.1695498824119568, 0.048076383769512177, -0.01646684855222702, 0.0863756388425827, -0.052489567548036575, 0.06876863539218903, -0.10485135763883591, -0.06416185945272446, -0.02665790170431137, -0.1333492547273636, 0.1845986694097519, -0.10464207828044891, -0.08861475437879562, -0.24045737087726593, -0.26985424757003784, -0.16496111452579498, -0.05358188971877098], [-0.05093187838792801, 0.03938983008265495, -0.15730471909046173, -0.14233502745628357, 0.07079301029443741, 0.08847924321889877, -0.1086006909608841, -0.07440569996833801, -0.048240743577480316, -0.005330931860953569, -0.12524160742759705, -0.0673338994383812, -0.10002736002206802, 0.1274138242006302, 0.18885721266269684, -0.04559268429875374, -0.07363062351942062, -0.03298845887184143, -0.0037746266461908817, -0.07299104332923889, 0.16600583493709564, -0.12734700739383698, 0.01642703451216221, 0.03721029683947563, 0.03882840275764465, -0.11881132423877716, 0.010503377765417099, 0.12223963439464569, -0.17882700264453888, -0.17755334079265594, -0.0014340084744617343, -0.08270920813083649, 0.03735468164086342, 0.07047278434038162, -0.03138258308172226, -0.02371174283325672, 0.07723928242921829, 0.06248331815004349, 0.24451620876789093, 0.08852926641702652, 0.09680533409118652, 0.023836441338062286, 0.12902309000492096, 0.06904632598161697, 0.13332024216651917, 0.04801158607006073, 0.07886001467704773, -0.12515686452388763, 0.17215512692928314, -0.13294634222984314, -0.06443766504526138, 0.011095430701971054, 0.09312473237514496, -0.18110641837120056, -0.080591581761837, 0.15979228913784027, 0.032027505338191986, -0.15955007076263428, 0.17112483084201813, -0.19083327054977417, -0.12088609486818314, -0.12510015070438385, -0.15358634293079376, 0.06590763479471207, -0.08833849430084229, -0.030083870515227318, 0.031587887555360794, -0.02262110635638237, 0.12260007858276367, 0.07085206359624863, 0.11979509145021439, -0.16092784702777863, -0.1489681452512741, -0.046804334968328476, 0.125314861536026, -0.10189694166183472, 0.11328285187482834, -0.09394464641809464, 0.05155264958739281, 0.1542978435754776, -0.12106957286596298, -0.010078437626361847, -0.06184099242091179, 0.1537579596042633, 0.11775659024715424, -0.0829848051071167, -0.048461660742759705, 0.021098675206303596, -0.00404598843306303, -0.06790690124034882, 0.008084959350526333, 0.0992167741060257, -0.028731683269143105, -0.03727683052420616, -0.1459978222846985, 0.00359605485573411, -0.111363485455513, 0.059058137238025665, -0.03642978519201279, -0.11583760380744934, 0.18272142112255096, 0.14564207196235657, 0.06106607988476753, -0.01024845615029335, -0.0736912190914154, 0.014777508564293385, -0.01444399543106556, 0.01036966871470213, 0.15391302108764648, 0.02013574168086052, -0.09005475789308548, 0.01949615590274334, 0.17183056473731995, 0.22606739401817322, 0.1577533334493637, 0.1069549024105072, -0.15316343307495117, -0.09861218929290771, 0.19768579304218292, -0.07241653650999069, -0.09180475026369095, 0.057334091514348984, -0.01071068737655878, -0.02871961146593094, 0.02361893653869629, 0.10129587352275848, -0.13787537813186646, -0.16878584027290344], [0.011182649061083794, -0.017852500081062317, 0.038290008902549744, 0.10777148604393005, -0.11364168673753738, 0.12360896915197372, 0.07532216608524323, -0.22119711339473724, -0.053133878856897354, 0.10918411612510681, -0.018445640802383423, -0.1414906084537506, 0.02379828505218029, -0.1545746922492981, 0.007416767533868551, 0.08161840587854385, 0.05528276786208153, 0.07589808851480484, 0.08645836263895035, -0.13723164796829224, -0.1621922254562378, -0.1591205894947052, -0.042431946843862534, 0.011792361736297607, 0.042678385972976685, -0.09126704931259155, 0.14929121732711792, 0.1429746448993683, -0.15749341249465942, -0.0642579048871994, -0.1446492224931717, -0.08504102379083633, -0.1148880273103714, -0.09711471945047379, -0.06093553453683853, 0.17206473648548126, -0.049782443791627884, 0.22237229347229004, -0.11537175625562668, 0.24309982359409332, -0.19588354229927063, 0.0009847518522292376, 0.09960182011127472, -0.1284279227256775, 0.0535443089902401, 0.07624687254428864, -0.026903685182332993, -0.12886348366737366, -0.14986442029476166, 0.012423685751855373, -0.05639728903770447, -0.12251651287078857, 0.046489909291267395, 0.07072558254003525, -0.08690100163221359, 0.0012245569378137589, 0.15532046556472778, -0.058923691511154175, -0.10207680612802505, -0.05258024111390114, -0.03152064234018326, 0.053218573331832886, -0.12165509164333344, 0.02101360820233822, -0.04573522135615349, 0.22515492141246796, 0.2277320772409439, -0.02354021556675434, -0.0010810147505253553, 0.127563014626503, 0.0010427519446238875, 0.22725999355316162, -0.030959241092205048, 0.13770344853401184, 0.08445403724908829, -0.06565026938915253, -0.0638522133231163, -0.08538812398910522, -0.05915394797921181, 0.13642024993896484, -0.1662948578596115, -0.00829800684005022, 0.0009315542411059141, -0.02995401620864868, 0.18448658287525177, 0.16149838268756866, -0.06484805792570114, -0.03446254879236221, 0.1963096708059311, -0.15525394678115845, -0.15160496532917023, -0.15367621183395386, -0.010825023986399174, 0.004375412128865719, 0.0017910220194607973, 0.18733610212802887, 0.004682065919041634, 0.02132514864206314, 0.185618594288826, 0.03306925296783447, -0.09683337062597275, 0.07169374823570251, 0.1223289743065834, 0.08344064652919769, -0.021072030067443848, 0.015393993817269802, 0.008436632342636585, 0.03972052410244942, -0.17463047802448273, 0.1483350694179535, 0.1833842247724533, -0.021693352609872818, 0.09438812732696533, -0.0023408252745866776, 0.06884261220693588, -0.030984101817011833, -0.08104996383190155, -0.15509262681007385, -0.12277650088071823, 0.13106481730937958, 0.04466444253921509, 0.06969102472066879, 0.04266351833939552, 0.03876160830259323, 0.12934671342372894, -0.11510612815618515, -0.10666131228208542, 0.07094772905111313], [0.11292330175638199, 0.007480709347873926, -0.050776198506355286, -0.013511148281395435, 0.1338592767715454, -0.09537190198898315, 0.050898801535367966, 0.15101629495620728, -0.04456157609820366, -0.09057869017124176, -0.0035626685712486506, -0.03276193141937256, 0.14934603869915009, 0.19200703501701355, -0.05258478596806526, -0.10592315346002579, -0.15047265589237213, -0.04838833957910538, 0.09593801200389862, 0.09864542633295059, 0.12481100112199783, -0.08846238255500793, 0.09782921522855759, 0.0743119865655899, 0.10352569818496704, -0.07208753377199173, -0.07388950884342194, -0.11631948500871658, 0.030708836391568184, -0.06322123110294342, -0.07202664762735367, 0.08600013703107834, -0.04148874431848526, 0.08296528458595276, -0.061472080647945404, -0.08642588555812836, 0.06839610636234283, -0.08593747019767761, 0.13237953186035156, -0.04725455120205879, 0.059677593410015106, 0.1534346044063568, 0.1283370852470398, 0.0069677154533565044, 0.14461487531661987, 0.07449829578399658, -0.0936126559972763, -0.054328251630067825, 0.1086065024137497, -0.11845926195383072, -0.041128188371658325, 0.09570915251970291, -0.1350291520357132, 0.05218758061528206, 0.16398891806602478, 0.0924464538693428, -0.01268881093710661, -0.11019013822078705, 0.04689061641693115, 0.01104121096432209, 0.01771780289709568, 0.04315756633877754, 0.01981860212981701, -0.00022059223556425422, -0.13102711737155914, -0.026714686304330826, -0.005071848165243864, -0.007686218246817589, 0.12587209045886993, -0.06991937756538391, -0.0704672634601593, -0.23208974301815033, 0.003943445160984993, 0.006138971075415611, 0.04777705296874046, -0.07378172874450684, 0.00817262101918459, 0.015351374633610249, 0.09017689526081085, -0.08236947655677795, -0.07436656951904297, 0.07321712374687195, 0.04227405786514282, 0.07765465974807739, 0.15407173335552216, -0.09876354038715363, 0.01666480489075184, 0.013922971673309803, 0.014569027349352837, 0.03179435431957245, 0.16215117275714874, 0.03716530278325081, 0.1448330134153366, -0.0005112745566293597, -0.06264123320579529, -0.010387459769845009, 0.005336984060704708, 0.051206428557634354, 0.03708421811461449, 0.011318836361169815, -0.08268806338310242, -0.019078338518738747, -0.14573152363300323, 0.021173980087041855, 0.1501760482788086, 0.005859437398612499, -0.0019472428830340505, 0.1039837971329689, 0.024607254192233086, -0.06278152763843536, -0.08661412447690964, 0.04045233130455017, 0.02388853393495083, 0.05752365291118622, -0.12752573192119598, 0.13728776574134827, 0.0851268619298935, 0.032174669206142426, -0.0886167362332344, -0.1770366132259369, 0.041915930807590485, -0.15333741903305054, -0.06662915647029877, 0.09095047414302826, -0.15299317240715027, 0.09715766459703445, 0.02616182155907154, -0.14647337794303894], [-0.12439794838428497, 0.0004383535706438124, -0.12149570882320404, -0.17816224694252014, -0.13794498145580292, -0.027370652183890343, -0.007852647453546524, -0.09104835987091064, 0.13762620091438293, 0.012253236025571823, 0.20266658067703247, 0.003944351803511381, -0.08258280903100967, -0.0036848753225058317, -0.022851204499602318, 0.0031447801738977432, 0.18845053017139435, -0.11861203610897064, 0.005416270345449448, -0.05980755388736725, -0.13465441763401031, -0.01907781884074211, 0.04046083241701126, 0.09781674295663834, -0.08833888173103333, -0.11266031116247177, -0.12098697572946548, -0.03902862221002579, -0.17725302278995514, 0.013867855072021484, -0.019519619643688202, -0.06405530124902725, 0.023771585896611214, -0.035324860364198685, 0.1063680499792099, -0.06622397899627686, 0.14200928807258606, -0.09139043092727661, -0.06206650286912918, 0.14446444809436798, 0.057577621191740036, -0.01132049411535263, 0.0869750827550888, 0.08464360982179642, -0.14373081922531128, -0.0561918169260025, 0.02789895422756672, 0.03245304897427559, -0.1983553022146225, -0.0035160293336957693, 0.0010892025893554091, 0.20893381536006927, 0.15199027955532074, -0.05116407573223114, -0.03318850323557854, -0.18996797502040863, 0.20813021063804626, -0.09609565138816833, 0.0600535050034523, -0.014134733937680721, -0.03740295022726059, -0.10673638433218002, -0.10391630977392197, 0.17117047309875488, 0.012149271555244923, -0.14645367860794067, 0.013736890628933907, -0.064210444688797, 0.006130739115178585, -0.10712679475545883, -0.08714485168457031, -0.021126702427864075, 0.13921567797660828, -0.031995512545108795, 0.015278845094144344, -0.1284511387348175, -0.02620621770620346, -0.03716128319501877, -0.16097332537174225, 0.06108269840478897, 0.2172827273607254, -0.15280260145664215, 0.11953141540288925, 0.1733854115009308, -0.035976238548755646, -0.035625629127025604, 0.02993166074156761, -0.0321996808052063, -0.12242388725280762, 0.07059351354837418, 0.14719605445861816, 0.1308523714542389, 0.19213581085205078, 0.16563722491264343, 0.02436009608209133, 0.14820076525211334, 0.07206932455301285, 0.20551453530788422, 0.18907685577869415, -0.1335097700357437, -0.03575104475021362, 0.007676600944250822, -0.10931935161352158, 0.08638886362314224, 0.07354371249675751, 0.2471008449792862, -0.09269612282514572, 0.2471010684967041, -0.06696916371583939, 0.08695319294929504, 0.10848371684551239, 0.18535172939300537, 0.15684308111667633, 0.07030903548002243, -0.06663036346435547, -0.009390536695718765, 0.22021029889583588, 0.16563883423805237, 0.031008435413241386, -0.07130644470453262, 0.0952492356300354, 0.08013325929641724, 0.09972015768289566, -0.14160585403442383, -0.1419847011566162, -0.12055263668298721, -0.007679901551455259, 0.05737331509590149], [0.08269365131855011, -0.14077384769916534, -0.060808926820755005, 0.12514735758304596, -0.08464843779802322, 0.2212102860212326, -0.0500386506319046, 0.08461489528417587, -0.1714198887348175, 0.04054397717118263, -0.1315070241689682, 0.019124679267406464, 0.12645287811756134, -0.06288053095340729, 0.16534964740276337, -0.07984373718500137, 0.07826106250286102, -0.07112036645412445, 0.11231015622615814, 0.18327996134757996, 0.1311216652393341, 0.21964021027088165, -0.08687722682952881, -0.17570379376411438, 0.15105471014976501, -0.07616381347179413, -0.07564065605401993, -0.10216714441776276, -0.07605436444282532, 0.030427496880292892, -0.08453365415334702, 0.13188263773918152, -0.11004050076007843, 0.2546922266483307, -0.10019493848085403, 0.1426762044429779, -0.021340852603316307, 0.17790521681308746, -0.13504323363304138, -0.0447433739900589, -0.043852515518665314, 0.22653073072433472, -0.1390470713376999, -0.038192544132471085, 0.05707818642258644, 0.01354206819087267, 0.028815284371376038, 0.22383077442646027, 0.1097557544708252, -0.07446345686912537, 0.1000293493270874, 0.1557093858718872, 0.1549452841281891, -0.09769274294376373, 0.08353671431541443, 0.17534607648849487, 0.02019105665385723, -0.10267604142427444, 0.08594449609518051, -0.0659632459282875, -0.11349715292453766, -0.0244919266551733, -0.017760582268238068, -0.1334974765777588, -0.10312536358833313, -0.11789661645889282, 0.07492047548294067, 0.217646524310112, 0.018689695745706558, -0.13473905622959137, 0.10547218471765518, 0.02736743912100792, -0.166270449757576, -0.008073150180280209, -0.010790268890559673, 0.1256432980298996, 0.11262961477041245, -0.04147969186306, 0.048758044838905334, -0.1175893247127533, -0.0320412702858448, 0.03720911219716072, 0.05398999899625778, -0.018355362117290497, 0.06284690648317337, 0.022662194445729256, -0.04489533603191376, 0.0016045750817283988, 0.09014202654361725, 0.09414076805114746, 0.10047394782304764, 0.18478497862815857, 0.0634821355342865, 0.24642306566238403, 0.16171960532665253, 0.2005033940076828, 0.09512817114591599, 0.07792589068412781, -0.056132733821868896, -0.131605327129364, 0.029100028797984123, 0.09270942211151123, -0.03411814197897911, -0.15677779912948608, -0.07198159396648407, 0.1004306897521019, 0.04697178676724434, -0.008470200002193451, 0.18138597905635834, 0.09237922728061676, 0.12361858040094376, 0.08332453668117523, 0.04386433586478233, 0.06485548615455627, -0.0903007984161377, -0.0051490855403244495, 0.04618549719452858, 0.05590140447020531, 0.06305070221424103, -0.022376131266355515, 0.03378884494304657, 0.013965589925646782, -0.0638711154460907, 0.17348617315292358, -0.1028374582529068, 0.19102394580841064, -0.07471191883087158, 0.2004571110010147], [-0.1448030024766922, -0.09275687485933304, -0.03418150544166565, 0.07764285057783127, -0.12424442917108536, -0.1661752164363861, -0.12447991967201233, -0.03008616343140602, -0.16287663578987122, -0.05230429768562317, -0.05265627056360245, -0.09265120327472687, -0.039685532450675964, 0.18643637001514435, 0.1734403371810913, -0.03129251301288605, 0.03989941626787186, 0.06098044291138649, -0.1661088913679123, -0.15830330550670624, 0.17232030630111694, -0.03262454643845558, -0.03382110968232155, -0.23186397552490234, 0.1898678094148636, 0.10694438219070435, 0.1806211918592453, -0.038888659328222275, 0.06291381269693375, -0.12632408738136292, -0.12412893027067184, 0.10754118859767914, 0.16209127008914948, 0.02776913531124592, -0.00935847032815218, 0.11205393075942993, 0.10216487944126129, 0.07332992553710938, 0.18786165118217468, -0.06906761974096298, 0.09860916435718536, -0.00785248726606369, -0.03879523649811745, -0.09994028508663177, 0.06789751350879669, 0.19805282354354858, 0.046217769384384155, 0.0644906684756279, 0.07228536903858185, -0.036557622253894806, 0.13004083931446075, 0.11615882813930511, 0.22134338319301605, 0.03775936737656593, 0.11929018050432205, 0.021383343264460564, -0.1058860495686531, -0.1304623931646347, -0.10430681705474854, -0.005835362710058689, 0.0508229024708271, 0.07888414710760117, -0.05146235227584839, -0.11203952878713608, -0.03583109751343727, -0.02765492908656597, -0.1388375163078308, 0.13972420990467072, 0.07770635932683945, 0.03319966048002243, -0.13299007713794708, -0.05488069728016853, 0.08536635339260101, -0.011641771532595158, 0.0706486776471138, 0.06357010453939438, 0.14184647798538208, -0.08795035630464554, 0.04980717599391937, 0.07877422124147415, -0.004417140036821365, -0.13684891164302826, -0.23727986216545105, 0.03225236013531685, 0.04294728487730026, 0.13261882960796356, -0.107190802693367, 0.18180768191814423, 0.19430918991565704, -0.054573334753513336, 0.07411198318004608, -0.12873044610023499, -0.14501473307609558, 0.004084535874426365, -0.06278738379478455, -0.008707069791853428, -0.21000689268112183, -0.014684285037219524, 0.11610298603773117, 0.08656739443540573, 0.22711843252182007, 0.22274968028068542, -0.05972575396299362, -0.08839210867881775, 0.032120075076818466, 0.058349527418613434, 0.15671655535697937, -0.05680818855762482, 0.16402539610862732, -0.033348988741636276, -0.09769544750452042, -0.0676020160317421, 0.18813689053058624, 0.13623571395874023, 0.07568284124135971, 0.017885897308588028, 0.05233939737081528, -0.033771757036447525, 0.07443960756063461, -0.10457411408424377, -0.032432492822408676, 0.1868862509727478, -0.08653095364570618, -0.10376152396202087, 0.055023856461048126, 0.004334600176662207, -0.09811271727085114, 0.0433807410299778], [-0.0028945563826709986, 0.08999612927436829, -0.17647898197174072, 0.10984380543231964, 0.19712156057357788, 0.0875617116689682, -0.14621609449386597, 0.14859750866889954, 0.17128868401050568, -0.08172060549259186, -0.08569276332855225, 0.04706230014562607, -0.0706128478050232, 0.14248411357402802, 0.006017195526510477, 0.11418955773115158, 0.059732481837272644, 0.0959734246134758, -0.022299233824014664, 0.0905846431851387, 0.20965299010276794, 0.03878851234912872, 0.06279056519269943, -0.08259885013103485, 0.11472444236278534, 0.002055932767689228, 0.12623457610607147, 0.08003538846969604, -0.0716172531247139, 0.004021669737994671, 0.02319694310426712, -0.01275144424289465, 0.0819610059261322, 0.1958625167608261, -0.18384060263633728, 0.08486209064722061, -0.07341130822896957, 0.07765009999275208, -0.16851724684238434, 0.02974732220172882, 0.1949106901884079, 0.03820943087339401, 0.13891860842704773, -0.00882770400494337, -0.1802286058664322, 0.06951382011175156, 0.17308011651039124, 0.0040159281343221664, -0.1360047310590744, 0.1293964385986328, 0.050769537687301636, 0.06899303942918777, -0.11339645087718964, 0.014796871691942215, 0.24080578982830048, -0.05689265951514244, -0.07761754840612411, 0.1216794028878212, 0.03539872169494629, 0.11626322567462921, 0.19162225723266602, 0.09825269877910614, -0.06534677743911743, 0.024162618443369865, -0.028560595586895943, 0.10641858726739883, -0.0223039872944355, -0.05878428742289543, -0.13052336871623993, 0.10547948628664017, -0.006149082910269499, -0.14704518020153046, 0.027653532102704048, -0.0928778350353241, 0.08684477210044861, -0.2057849019765854, 0.2358776181936264, 0.07898543030023575, -0.030363067984580994, -0.11893617361783981, 0.025710199028253555, -0.11710786819458008, 0.011116135865449905, 0.043150775134563446, -0.07328709214925766, -0.26529648900032043, 0.11978229135274887, 0.12878593802452087, -0.12396078556776047, 0.058469582349061966, -0.05548521503806114, -0.05885107442736626, -0.1282135546207428, -0.08055844157934189, 0.19175319373607635, 0.10507602989673615, -0.08243998140096664, -0.034049175679683685, 0.08369998633861542, -0.005870852153748274, -0.13891999423503876, -0.09463432431221008, -0.04477546736598015, 0.07351235300302505, -0.0031720828264951706, 0.008687753230333328, -0.1474294513463974, 0.19575774669647217, 0.13579785823822021, 0.04628019407391548, 0.1925170123577118, -0.1604735255241394, -0.004281516186892986, -0.08196233958005905, -0.12135381251573563, -0.0673048123717308, 0.16466447710990906, -0.11607646197080612, -0.11609378457069397, 0.04451180621981621, -0.1782553493976593, -0.16892355680465698, 0.2045261412858963, 0.05949578061699867, 0.05218874663114548, 0.1032104343175888, 0.0024480123538523912, -0.1623302698135376], [0.14853185415267944, -0.09842121601104736, 0.1744152307510376, -0.034360647201538086, -0.028872167691588402, -0.06928680837154388, 0.018042778596282005, 0.029496323317289352, -0.10362284630537033, -0.03554697334766388, -0.15385209023952484, 0.03127889335155487, -0.1666553020477295, 0.1141442209482193, -0.14195692539215088, 0.10862937569618225, 0.037199925631284714, 0.02515357919037342, 0.03355259820818901, -0.10230648517608643, -0.16332930326461792, -0.18672281503677368, -0.04039717838168144, 0.06942340731620789, -0.034993771463632584, 0.06431693583726883, -0.07555405795574188, 0.0936017632484436, 0.026920467615127563, -0.09756273776292801, 0.04787890613079071, -0.0722322091460228, -0.009403572417795658, -0.20678816735744476, 0.13583236932754517, -0.08849865943193436, -0.0244277436286211, -0.16057276725769043, 0.06820206344127655, 0.06944873929023743, -0.024097111076116562, -0.15024425089359283, 0.03753339871764183, 0.06470653414726257, -0.11573410034179688, -0.05640389397740364, -0.006906712893396616, -0.03774376958608627, 0.1180073544383049, 0.052770476788282394, -0.04064634442329407, -0.053526006639003754, 0.032136913388967514, 0.14621087908744812, -0.22260229289531708, 0.12669497728347778, -0.029354523867368698, -0.012410223484039307, -0.12558086216449738, 0.017028944566845894, -0.1913471668958664, 0.089301697909832, -0.11337640881538391, -0.16131539642810822, -0.03370317444205284, 0.10182159394025803, -0.04533179849386215, -0.07211516797542572, 0.15083923935890198, 0.11619086563587189, 0.016720635816454887, 0.16299989819526672, -0.003134123980998993, -0.13749131560325623, 0.05080932378768921, 0.03083636797964573, 0.026363832876086235, -0.13143961131572723, 0.00020218407735228539, 0.14362017810344696, -0.03375418111681938, 0.02766997180879116, 0.07048550248146057, -0.1445869654417038, 0.10503198206424713, 0.27584031224250793, 0.0020564794540405273, 0.06586487591266632, -0.04792605713009834, 0.047157205641269684, -0.05851363763213158, -0.07880271971225739, 0.07000268995761871, -0.025933831930160522, -0.11342860013246536, 0.03863702341914177, 0.01399249117821455, -0.2084752470254898, -0.11780833452939987, -0.04851699620485306, 0.13574238121509552, -0.11517827957868576, 0.003748156363144517, -0.021002545952796936, 0.19362318515777588, 0.00920666940510273, -0.163490891456604, 0.02384505420923233, 0.020612305030226707, -0.0008666482754051685, -0.11729959398508072, -0.14577411115169525, 0.0028711196500808, 0.049927812069654465, 0.088590607047081, 0.058000609278678894, -0.14061038196086884, 0.06526553630828857, -0.017662527039647102, 0.07857132703065872, 0.12982825934886932, 0.1212010458111763, -0.13336381316184998, -0.06975556910037994, -0.14043179154396057, 0.11414337903261185, 0.0007999069057404995, -0.13544303178787231], [-0.04620862752199173, 0.00897438544780016, 0.05545997992157936, 0.03350409120321274, 0.011439635418355465, 0.04165836051106453, 0.10811412334442139, 0.12562929093837738, -0.004290284588932991, -0.14447546005249023, 0.03430423140525818, 0.14874425530433655, 0.06696140766143799, -0.1260443776845932, 0.10490363836288452, -0.06032012030482292, -0.07607447355985641, 0.016393302008509636, 0.04136062040925026, -0.11336135119199753, 0.013254617340862751, 0.10321842133998871, -0.0478859506547451, 0.2502628266811371, -0.05648547783493996, 0.03511597588658333, -0.15903879702091217, 0.0313456691801548, 0.022044284269213676, -0.07219745963811874, 0.09822404384613037, -0.2079470157623291, 0.21830672025680542, -0.19038820266723633, -0.10248202830553055, -0.07770809531211853, -0.06657886505126953, -0.08958680182695389, 0.20841801166534424, 0.1741591840982437, -0.05690925568342209, 0.2549090087413788, 0.15506818890571594, -0.03249942883849144, -0.06581925600767136, -0.01836029440164566, -0.10732965171337128, -0.0426965057849884, 0.145103320479393, 0.1034068614244461, -0.054962772876024246, 0.09380216896533966, -0.16698575019836426, 0.07113109529018402, -0.1086483970284462, 0.14125728607177734, -0.010736154392361641, 0.14473150670528412, 0.013983607292175293, -0.10542267560958862, -0.06474943459033966, 0.08024663478136063, 0.14880439639091492, 0.04924531653523445, -0.12745177745819092, 0.1978783756494522, 0.17630909383296967, 0.08171723783016205, -0.06390677392482758, -0.09235872328281403, 0.0005378141067922115, -0.09754502028226852, -0.13017435371875763, 0.07366010546684265, 0.004319818690419197, -0.17485615611076355, -0.11279088258743286, -0.13584674894809723, 0.11466825008392334, 0.10713621973991394, -0.0763527899980545, -0.04919298738241196, 0.09936123341321945, -0.10150852054357529, -0.17007744312286377, -0.00030104306642897427, -0.08629993349313736, -0.1007300540804863, -0.0820455551147461, -0.1186840683221817, -0.07896795868873596, 0.13852311670780182, -0.11495016515254974, -0.1541363000869751, -0.02387649193406105, -0.033974334597587585, -0.11527509987354279, -0.06710712611675262, -0.12990997731685638, 0.12158359587192535, -0.07419546693563461, -0.09178369492292404, 0.06197451800107956, 0.16323186457157135, 0.21483972668647766, -0.033097025007009506, -0.008952816016972065, 0.02972177416086197, 0.09035128355026245, -0.0923973098397255, -0.1731875091791153, 0.06334688514471054, 0.04536738619208336, -0.12630464136600494, -0.07847610116004944, -0.11412058770656586, 0.0036665997467935085, -0.028237298130989075, -0.03981921076774597, 0.09991630911827087, -0.02105143293738365, -0.09639176726341248, 0.21347248554229736, -0.009608644992113113, -0.027814654633402824, -0.09029138088226318, -0.04086435213685036, -0.02636558748781681], [-0.004021600354462862, 0.1988270878791809, -0.07707962393760681, -0.01867356151342392, -0.20381736755371094, -0.1293560266494751, -0.16247323155403137, 0.015015524812042713, 0.02422204613685608, -0.057761382311582565, 0.08292203396558762, -0.1090850904583931, 0.15362317860126495, -0.10600876063108444, -0.07379895448684692, 0.051628872752189636, 0.10202556848526001, 0.0851028561592102, -0.15599222481250763, 0.04790426418185234, 0.06807732582092285, 0.18629418313503265, -0.0826384499669075, 0.015106330625712872, -0.11624152958393097, -0.01478691678494215, 0.19956137239933014, -0.12123510241508484, -0.06761983036994934, -0.03988349065184593, -0.0919763445854187, -0.03532588854432106, -0.170408695936203, -0.07029753923416138, -0.030123714357614517, -0.10907572507858276, -0.036092378199100494, 0.19846764206886292, -0.06674706935882568, 0.011265149340033531, 0.023208212107419968, 0.05391797423362732, 0.1299859881401062, -0.0697418600320816, 0.030320772901177406, 0.03253353387117386, -0.13875055313110352, -0.0314735472202301, -0.04946736618876457, 0.18583808839321136, -0.1540822833776474, -0.010719296522438526, 0.1288941502571106, -0.12233573198318481, 0.14701735973358154, 0.016358671709895134, -0.022294119000434875, 0.02016524225473404, 0.10889720916748047, 0.0102929025888443, -0.20539537072181702, 0.06843508034944534, 0.18450605869293213, -0.09850655496120453, -0.024553557857871056, 0.0734325647354126, 0.11836770176887512, 0.011521573178470135, 0.06569655239582062, -0.06834331154823303, -0.004334751516580582, 0.16752660274505615, -0.09983117133378983, 0.20342160761356354, 0.23408472537994385, 0.07510606199502945, -0.2315143644809723, -0.10574834793806076, -0.10295787453651428, 0.10013946890830994, 0.09895545244216919, 0.04942965880036354, 0.025200190022587776, -0.014287683181464672, 0.18231149017810822, 0.007076222449541092, 0.025740543380379677, 0.03539682552218437, 0.21437329053878784, -0.060333315283060074, 0.046756893396377563, -0.05419062450528145, 0.029892440885305405, -0.08510942757129669, -0.11575375497341156, 0.04754244536161423, -0.18484705686569214, 0.07568510621786118, 0.07970117777585983, -0.09711305052042007, -0.19342772662639618, -0.11090714484453201, 0.24069485068321228, -0.1313944160938263, -0.026126841083168983, -0.020578064024448395, 0.19562067091464996, 0.09770648926496506, 0.004127988591790199, 0.008729010820388794, 0.10056893527507782, 0.019811075180768967, -0.03535003215074539, 0.09814393520355225, 0.11931906640529633, -0.04770960658788681, -0.1484256237745285, -0.1650627702474594, -0.11904167383909225, 0.19821487367153168, 0.1312660276889801, 0.018012624233961105, -0.15654517710208893, 0.2343214899301529, 0.2664555311203003, -0.07272954285144806, -0.122892364859581, 0.03714464232325554], [-0.25672462582588196, -0.13843151926994324, -0.042069144546985626, -0.11260624974966049, -0.05847824364900589, 0.09122667461633682, -0.10748638957738876, -0.07298924773931503, 0.05221911519765854, 0.06652012467384338, 0.0543479360640049, -0.015035278163850307, -0.051022548228502274, 0.0006117215962149203, 0.15257686376571655, -0.06697650253772736, -0.17818689346313477, 0.22557689249515533, 0.012470112182199955, 0.026390952989459038, 0.005798845086246729, 0.1234641969203949, 0.030573612079024315, -0.09945432096719742, 0.13122838735580444, -0.04731157422065735, 0.09278469532728195, 0.13593439757823944, 0.028796564787626266, -0.049728840589523315, 0.056920137256383896, 0.12950555980205536, 0.20273815095424652, 0.024707715958356857, 0.16786277294158936, 0.061424899846315384, 0.008833040483295918, 0.04212822765111923, 0.0448925606906414, -0.13823556900024414, -0.10722547024488449, 0.13300427794456482, -0.09093490988016129, 0.08926443755626678, 0.09924245625734329, 0.13357824087142944, 0.09423036128282547, -0.14299766719341278, 0.03368189185857773, -0.0070211258716881275, 0.14482897520065308, 0.039404526352882385, -0.1152510866522789, -0.17465204000473022, 0.052318960428237915, 0.028440022841095924, -0.04434102401137352, 0.05733503773808479, 0.15672603249549866, -0.12412891536951065, -0.15751250088214874, -0.11578752845525742, 0.03239116072654724, -0.14653386175632477, -0.10024874657392502, -0.09192729741334915, -0.0947074219584465, -0.16156578063964844, 0.006280271336436272, 0.05113350600004196, 0.18995301425457, -0.17893943190574646, -0.06572643667459488, -0.062363673001527786, 0.23038452863693237, 0.08364932239055634, 0.02514212392270565, -0.04244012013077736, 0.14712348580360413, 0.2000333070755005, 0.03689003735780716, -0.12032022327184677, -0.05094986781477928, 0.023844650015234947, -0.10522576421499252, 0.03834761679172516, -0.1397867649793625, 0.1963653713464737, -0.0009075151174329221, -0.05629348009824753, 0.046615634113550186, -0.0391586609184742, 0.013192029669880867, -0.030394848436117172, -0.022101793438196182, 0.05319450423121452, -0.09130146354436874, -0.156002014875412, 0.14733806252479553, 0.11846645921468735, -0.052427250891923904, 0.12451201677322388, 0.03607049956917763, -0.017213480547070503, -0.04432090371847153, -0.1778048723936081, -0.16239678859710693, -0.022346682846546173, 0.14799422025680542, 0.003863040590658784, 0.06250538676977158, 0.028671080246567726, 0.1550794243812561, 0.2018444836139679, 0.15988098084926605, -0.09528059512376785, -0.03806859999895096, 0.05525507405400276, 0.17784033715724945, -0.1855713427066803, -0.09865189343690872, 0.178000345826149, -0.11806491762399673, -0.1233973577618599, -0.12700042128562927, 0.06202184408903122, -0.11797741800546646, -0.14352482557296753], [0.29620465636253357, -0.1522836834192276, -0.08572275936603546, 0.27281105518341064, 0.04334782063961029, 0.008778361603617668, 0.09727444499731064, -0.13203471899032593, 0.22423428297042847, 0.1419215053319931, -0.07367467880249023, -0.14405161142349243, -0.04399305209517479, -0.07932935655117035, -0.1703982800245285, 0.0386078841984272, -0.021647579967975616, -0.022107316181063652, -0.13718603551387787, 0.2950344979763031, -0.08621419966220856, -0.11127255856990814, -0.06562541425228119, 0.07550230622291565, -0.1033846065402031, -0.1339399218559265, -0.14301617443561554, -0.025735508650541306, -0.1766280084848404, 0.013900826685130596, -0.08838806301355362, -0.020686861127614975, 0.14083844423294067, 0.19870784878730774, 0.019692732021212578, 0.07324233651161194, 0.028037993237376213, -0.003375097643584013, 0.12025384604930878, -0.0636691153049469, -0.04028182849287987, -0.00477014621719718, 0.1417745053768158, 0.05050318315625191, 0.033847060054540634, 0.04235106334090233, -0.056276775896549225, 0.07256241142749786, 0.10499800741672516, -0.012501031160354614, -0.15037736296653748, 0.07156234979629517, -0.01276165246963501, 0.265069842338562, -0.16667725145816803, -0.08464860171079636, -0.08968460559844971, -0.12127451598644257, 0.010767991654574871, 0.2806251645088196, -0.07225330173969269, -0.019146300852298737, 0.220894455909729, -0.08324161171913147, -0.048901624977588654, -0.07292649894952774, -0.16381417214870453, -0.14846742153167725, -0.05915062502026558, 0.11941181868314743, -0.14301705360412598, 0.08642479032278061, -0.01945304498076439, -0.03194122016429901, -0.14378871023654938, -0.13829943537712097, -0.04018905386328697, -0.16707907617092133, -0.03703909367322922, 0.16405874490737915, -0.12312716990709305, 0.052038583904504776, -0.0758717730641365, -0.1445479542016983, 0.14206309616565704, -0.05622589588165283, 0.0459221787750721, -0.017577536404132843, -0.09499601274728775, 0.021550694480538368, 0.03942091017961502, 0.0843278095126152, 0.26931092143058777, -0.12720410525798798, -0.05739502236247063, -0.12804308533668518, -0.13529883325099945, -0.08762871474027634, 0.025787895545363426, 0.05545217916369438, 0.09623029828071594, -0.21679486334323883, 0.0919342041015625, -0.10979507118463516, -0.15475960075855255, 0.0027654313016682863, -0.025013893842697144, 0.15548458695411682, 0.10336015373468399, -0.0295651126652956, 0.005442787893116474, 0.07611602544784546, -0.16652552783489227, 0.03468901664018631, 0.208661749958992, -0.18428581953048706, -0.15163549780845642, 0.12415356189012527, 0.100477434694767, -0.010463288985192776, 0.04911328852176666, 0.10215315222740173, -0.060896363109350204, 0.03389708325266838, 0.061955586075782776, 0.015591164119541645, -0.11737124621868134, 0.03135159984230995], [-0.15086543560028076, 0.0962071344256401, -0.1362185925245285, -0.12306426465511322, 0.06840088218450546, -0.10184405744075775, -0.05823080241680145, 0.2896949350833893, 0.0914946049451828, 0.09176289290189743, -0.0568038746714592, 0.100409135222435, -0.0852554440498352, -0.02213405631482601, -0.014890885911881924, -0.15030992031097412, -0.17390842735767365, -0.18522891402244568, -0.08412514626979828, 0.07899215072393417, -0.083562932908535, 0.11515805870294571, -0.20731811225414276, 0.026547756046056747, -0.02003468945622444, 0.0039363522082567215, -0.015430215746164322, 0.19701996445655823, 0.24857157468795776, 0.13725483417510986, 0.10900940746068954, -0.16396549344062805, 0.1444050371646881, -0.014412978664040565, 0.03431208059191704, -0.0635332316160202, 0.12565666437149048, -0.16285225749015808, 0.1615484356880188, 0.02868431992828846, 0.03429904207587242, -0.05376531928777695, -0.10932844132184982, 0.02621125616133213, 0.09559867531061172, -0.09780623763799667, -0.047654058784246445, -0.09587930142879486, 0.006720267236232758, -0.01920291595160961, 0.0044225482270121574, -0.01777004636824131, 0.006520562339574099, 0.10679088532924652, -0.028570987284183502, 0.17958210408687592, -0.14656774699687958, -0.07284630089998245, 0.08935561031103134, 0.07319740951061249, 0.04501277953386307, -0.061268504709005356, -0.038122035562992096, 0.020706236362457275, 0.05594193562865257, -0.0998227596282959, -0.08809342980384827, 0.04808866232633591, -0.0004748845240101218, -0.06802394986152649, 0.13100959360599518, -0.12302561104297638, 0.22235874831676483, -0.03205093741416931, 0.028233297169208527, 0.28784793615341187, -0.20969770848751068, 0.18750175833702087, -0.02562575228512287, -0.08001916110515594, -0.08903448283672333, 0.0033112356904894114, 0.04803565889596939, -0.06339409947395325, 0.15735980868339539, 0.1940726339817047, 0.11474421620368958, -0.07299572974443436, 0.1850690245628357, 0.00704403780400753, 0.17189449071884155, 0.09926313906908035, 0.02099308930337429, 0.0301272701472044, 0.07763803750276566, 0.05614626035094261, 0.10421659052371979, -0.1575188785791397, -0.17558160424232483, -0.1257653832435608, 0.09427510201931, 0.06372249871492386, -0.03877446800470352, 0.02166488580405712, 0.0045952387154102325, 0.06494756788015366, 0.14852379262447357, -0.22454537451267242, -0.13796226680278778, -0.04079423099756241, -0.03203110024333, 0.16873137652873993, 0.19105128943920135, -0.03077618218958378, 0.09875968843698502, -0.10435264557600021, -0.1944652497768402, 0.16042643785476685, -0.06016455218195915, 0.008622953668236732, 0.061176903545856476, -0.10865017771720886, 0.05612771585583687, -0.0009601949714124203, -0.10657965391874313, -0.008540051057934761, -0.0936817079782486, 0.06613266468048096], [0.013334698975086212, 0.17292925715446472, 0.08498626202344894, -0.05757344141602516, 0.04104608669877052, 0.00027599913300946355, 0.023629574105143547, 0.09170177578926086, 0.06910298764705658, -0.11552122235298157, 0.19284696877002716, 0.19616292417049408, 0.24011296033859253, 0.0994078665971756, -0.05648083984851837, 0.03161463886499405, -0.14882773160934448, 0.08172362297773361, -0.08708963543176651, -0.11985675245523453, 0.11219549924135208, 0.16841936111450195, 0.14065232872962952, -0.14628279209136963, 0.041430164128541946, -0.03353545069694519, 0.15040847659111023, -0.05804445967078209, 0.03761948645114899, 0.020325295627117157, 0.030168673023581505, 0.1068279892206192, -0.05712183564901352, -0.07939445227384567, 0.08319718390703201, -0.18491144478321075, 0.1514483392238617, 0.01012517511844635, 0.09915105998516083, 0.07858381420373917, 0.05437551811337471, -0.010336620733141899, -0.01065084245055914, -0.02523142844438553, 0.08611391484737396, -0.03848433867096901, 0.08973225206136703, -0.004130336921662092, 0.00043484242632985115, 0.2047538459300995, 0.0192251019179821, -0.08247588574886322, 0.02064456418156624, -0.1333049088716507, 0.08749179542064667, -0.0817330926656723, 0.06986117362976074, -0.14780621230602264, 0.08427061140537262, 0.21540199220180511, 0.03626418113708496, 0.17704284191131592, 0.13008926808834076, 0.11042553931474686, 0.22397157549858093, 0.05028805881738663, 0.006711871828883886, -0.11354746669530869, -0.05280643329024315, -0.09058653563261032, -0.09401818364858627, -0.06987269967794418, 0.06193863973021507, -0.05134263262152672, 0.10386258363723755, -0.052048396319150925, -0.14934101700782776, 0.04325936734676361, -0.1004202738404274, -0.0041608368046581745, 0.2009539157152176, 0.19744883477687836, -0.031703393906354904, -0.07266506552696228, 0.06199823319911957, -0.19180083274841309, 0.059529852122068405, -0.13295046985149384, 0.22781237959861755, -0.008194566704332829, -0.13042624294757843, 0.11171282082796097, 0.016013765707612038, -0.16098447144031525, -0.03832584619522095, -0.1409418284893036, 0.09225030243396759, -0.10243966430425644, -0.1754956990480423, -0.20492011308670044, -0.15713383257389069, -0.09699510782957077, 0.0021933026146143675, -0.13656401634216309, 0.08259007334709167, -0.22417113184928894, 0.12871845066547394, 0.06841437518596649, -0.0001102571259252727, 0.06943386793136597, -0.0806373879313469, 0.15260763466358185, 0.10770869255065918, 0.2070557028055191, 0.010894875042140484, -0.018512889742851257, -0.08396492898464203, -0.13892634212970734, -0.18139109015464783, -0.013359816744923592, 0.15943127870559692, -0.08007896691560745, -0.04155418276786804, 0.20652639865875244, 0.1077091246843338, 0.03605800122022629, -0.11224239319562912, 0.03123481199145317], [0.003774466225877404, 0.13450253009796143, -0.020514022558927536, 0.13877347111701965, -0.05419420078396797, 0.24096888303756714, -0.013426398858428001, 0.1184832900762558, -0.12661013007164001, 0.04965954273939133, -0.2501402497291565, 0.13663023710250854, 0.1619928777217865, -0.02206343784928322, 0.05824194848537445, -0.20067088305950165, -0.2194940745830536, -0.12691251933574677, 0.198297917842865, -0.11030731350183487, 0.021329747512936592, 0.08485807478427887, 0.14465248584747314, -0.001081847003661096, 0.06991497427225113, -0.05452553182840347, 0.06857576966285706, 0.0533333383500576, 0.005359055940061808, -0.1542709469795227, -0.14677026867866516, 0.1583518236875534, 0.06938154250383377, 0.1525980681180954, -0.2280787229537964, -0.04540463536977768, 0.05325593054294586, -0.109975665807724, 0.035026781260967255, 0.1307530254125595, 0.2003602832555771, 0.028331633657217026, 0.1994829922914505, 0.165202334523201, -0.1257762610912323, 0.169239804148674, -0.24894209206104279, 0.11371979117393494, -0.008866187185049057, 0.18009212613105774, -0.05144966393709183, 0.09079331904649734, 0.035076387226581573, -0.10606583207845688, -0.07013120502233505, 0.12841561436653137, 0.013136545196175575, 0.27290472388267517, -0.048096612095832825, 0.10616360604763031, -0.08314504474401474, 0.012342679314315319, 0.0899980291724205, -0.17746049165725708, -0.12406603246927261, -0.058122504502534866, 0.17232277989387512, 0.22082342207431793, -0.03583872318267822, 0.0672335997223854, -0.07802630960941315, -0.2088276892900467, 0.03786987438797951, 0.1422554850578308, -0.13022957742214203, -0.06234121695160866, -0.1635122001171112, 0.009026956744492054, 0.04597274214029312, 0.04615878686308861, 0.1278240829706192, 0.07309752702713013, -0.12529213726520538, -0.10739593207836151, 0.17755240201950073, 0.10054174810647964, -0.13900785148143768, -0.21204420924186707, -0.17501357197761536, -0.1773003488779068, -0.05910094082355499, 0.2209407091140747, -0.13017681241035461, 0.1958353966474533, 0.06402875483036041, -0.13928714394569397, -0.0887519046664238, 0.023581204935908318, -0.05514749139547348, 0.008138134144246578, -0.1809464395046234, -0.1442607343196869, 0.08345978707075119, 0.053348857909440994, 0.1448834240436554, 0.017477426677942276, 0.024619432166218758, -0.12830449640750885, 0.008542477153241634, 0.12986747920513153, -0.23731955885887146, -0.02030610851943493, -0.1661994755268097, 0.051170893013477325, -0.19300852715969086, 0.20318512618541718, -0.010512192733585835, -0.009651762433350086, -0.28125616908073425, -0.2294594645500183, -0.12391922622919083, 0.019491856917738914, 0.07046850770711899, 0.14998291432857513, -0.018108509480953217, 0.15431401133537292, 0.02956898882985115, 0.02348513901233673], [-0.049179233610630035, -0.053952187299728394, -0.014387390576303005, -0.01719035394489765, -0.06885001063346863, -0.12037419527769089, -0.04730400815606117, 0.1343609094619751, 0.16810715198516846, -0.16324928402900696, -0.01648780144751072, 0.10398990660905838, -0.07085248827934265, -0.11893238127231598, -0.04579677805304527, 0.0965496227145195, -0.12334892898797989, 0.11643733829259872, 0.04443918168544769, -0.09070321172475815, 0.1743268072605133, 0.07630506902933121, 0.09588874131441116, -0.030169082805514336, 0.10015107691287994, 0.12617073953151703, -0.00481784762814641, -0.058729954063892365, 0.04077766090631485, 0.04304567351937294, -0.067066490650177, 0.11326605081558228, -0.11067517846822739, -0.061782922595739365, -0.08422014117240906, -0.06344521045684814, 0.0075849140994250774, -0.04575270414352417, -0.00968440156430006, -0.15675349533557892, 0.037753306329250336, 0.06986836344003677, -0.04742513224482536, 0.08452827483415604, 0.016819734126329422, -0.027448613196611404, -0.016664186492562294, -0.11021971702575684, 0.09723759442567825, 0.09575443714857101, 0.0463629812002182, -0.04907572641968727, 0.10356501489877701, -0.06650246679782867, 0.16267246007919312, -0.08261004090309143, -0.1860663741827011, -0.06081929802894592, 0.0021013086661696434, -0.09543655067682266, 0.062105607241392136, 0.11571798473596573, -0.08213602751493454, -0.11592935025691986, -0.08198122680187225, 0.06570353358983994, 0.053946930915117264, 0.11626459658145905, 0.03716738149523735, 0.05324661731719971, -0.20312216877937317, -0.031382422894239426, -0.09187527745962143, -0.14624668657779694, -0.1165478527545929, -0.09113286435604095, 0.04621683061122894, -0.1641876995563507, 0.059233300387859344, 0.05933991074562073, -0.08599984645843506, -0.12317609786987305, -0.049984827637672424, 0.16269029676914215, -0.10226675868034363, 0.02039129100739956, 0.09650668501853943, 0.034152958542108536, -0.028573544695973396, -0.06759587675333023, 0.025294363498687744, 0.021494397893548012, 0.04569227620959282, 0.04809770733118057, 0.17448224127292633, -0.008492047898471355, 0.023704299703240395, -0.05128728598356247, 0.03868846595287323, -0.034365080296993256, 0.08092117309570312, -0.10117702931165695, 0.0004154086345806718, 0.0595485083758831, -0.09792040288448334, 0.027196360751986504, 0.07330163568258286, -0.04998639598488808, -0.1491154283285141, -0.02994624525308609, 0.15974657237529755, -0.03867066651582718, -0.025855587795376778, 0.011306782253086567, -0.12380195409059525, 0.11771219968795776, -0.0639873817563057, 0.04943623021245003, 0.03827105090022087, -0.1339724361896515, 0.01994362473487854, -0.07046627998352051, 0.07443105429410934, 0.06926476955413818, -0.06643559038639069, 0.1692812144756317, 0.18545441329479218, -0.13172629475593567], [-0.02613764815032482, 0.2052597552537918, 0.055881403386592865, 0.07241275906562805, 0.14827938377857208, 0.12694154679775238, 0.07803193479776382, 0.025580527260899544, 0.07750575244426727, -0.12295728176832199, -0.1378823220729828, 0.05510929226875305, -0.05648329481482506, 0.2255116105079651, -0.04306383058428764, -0.0395503006875515, -0.03274690732359886, -0.10380446165800095, -0.10814245790243149, 0.0004466490354388952, -0.08694715052843094, -0.05278678610920906, -0.08547484129667282, 0.07667525857686996, 0.07265281677246094, -0.07183900475502014, -0.11185283958911896, -0.06900642812252045, -0.0068150470033288, 0.10191089659929276, -0.08968314528465271, -0.08084084838628769, 0.12247790396213531, 0.03130760416388512, 0.015257944352924824, -0.04972958192229271, 0.11135818064212799, 0.036096829921007156, -0.09556415677070618, -0.2269037961959839, 0.0868934616446495, -0.18140649795532227, -0.030412748456001282, 0.04512753337621689, -0.06912891566753387, 0.13528746366500854, 0.0721622034907341, -0.08364591747522354, 0.09453272819519043, 0.10897032916545868, 0.10078635066747665, -0.1211073100566864, -0.13445304334163666, 0.14752396941184998, 0.03465131297707558, 0.08705378323793411, -0.09289537370204926, 0.21155020594596863, 0.014157897792756557, 0.20100921392440796, 0.0075315628200769424, -0.06894310563802719, -0.09731657058000565, -0.1022411584854126, 0.07109065353870392, 0.051931001245975494, 0.07121109217405319, 0.028002262115478516, -0.07714596390724182, 0.23921933770179749, -0.1037958562374115, -0.13559715449810028, -0.03732050582766533, -0.060472022742033005, 0.1724214255809784, 0.13048912584781647, 0.07534602284431458, 0.11551367491483688, -0.0888444110751152, -0.030816277489066124, -0.11018476635217667, 0.04353993386030197, -0.09898810088634491, -0.05789250135421753, 0.05824680253863335, 0.07255904376506805, 0.08415936678647995, -0.14278796315193176, -0.12788665294647217, -0.07823703438043594, 0.08988547325134277, -0.07961560785770416, 0.08495485037565231, 0.10185141861438751, -0.0677904263138771, -0.05220981687307358, 0.18020036816596985, -0.09638293832540512, 0.21215510368347168, -0.04588955640792847, 0.05668175220489502, 0.042713798582553864, -0.03636012598872185, 0.16475261747837067, 0.005709756165742874, -0.06679408997297287, 0.1387166529893875, 0.16125541925430298, -0.042958375066518784, -0.002478785812854767, -0.16139574348926544, 0.09164394438266754, 0.054197389632463455, -0.13584688305854797, -0.03541421890258789, 0.17037275433540344, 0.24573668837547302, -0.08968491852283478, -0.06605175882577896, -0.019153805449604988, 0.023094773292541504, -0.04930464178323746, 0.0007499520434066653, 0.07755135744810104, 0.1386042833328247, 0.0027014738880097866, 0.21494315564632416, 0.0908694639801979], [-0.08173318952322006, -0.06784047931432724, -0.0605626106262207, 0.09463410824537277, 0.009078636765480042, 0.1517980545759201, -0.057373274117708206, -0.10444722324609756, 0.03455713018774986, -0.06499499827623367, 0.03607696294784546, 0.24477162957191467, -0.036291468888521194, 0.05960114300251007, 0.18636630475521088, -0.12952356040477753, 0.1167522594332695, 0.0463944673538208, -0.12072295695543289, 0.10132856667041779, 0.06687919050455093, 0.18731318414211273, -0.16578352451324463, 0.08153551816940308, -0.05612177774310112, -0.04615698382258415, 0.009183496236801147, 0.1975865662097931, -0.179963618516922, -0.12138232588768005, -0.07292786985635757, -0.08316042274236679, 0.09673651307821274, -0.05509970337152481, -0.06288892775774002, 0.013261156156659126, 0.04991928115487099, -0.2154332399368286, -0.061933889985084534, 0.10747018456459045, -0.08370289206504822, 0.0994594544172287, 0.060252945870161057, 0.08187644928693771, -0.11372663825750351, -0.014330428093671799, -0.10640720278024673, -0.05956327170133591, 0.08092062920331955, -0.04382222890853882, -0.21166035532951355, 0.14217227697372437, -0.09307774156332016, 0.15154533088207245, 0.028971873223781586, 0.0054579684510827065, -0.021080290898680687, 0.26638951897621155, 0.10480817407369614, -0.09960106015205383, 0.15838515758514404, 0.1648428738117218, 0.19773656129837036, -0.037028562277555466, -0.11139430850744247, 0.0839780867099762, 0.013414873741567135, 0.09555009007453918, 0.12773524224758148, -0.07099950313568115, -0.043325167149305344, -0.11009931564331055, -0.11270773410797119, 0.07529807090759277, 0.012579882517457008, -0.02088087610900402, -0.05451739951968193, 0.02146913856267929, 0.03402930870652199, -0.0582740493118763, 0.15103237330913544, -0.08123334497213364, 0.01030784659087658, -0.011218930594623089, -0.2103346288204193, 0.11144609749317169, -0.16754688322544098, -0.005999505054205656, 